  -3.9970099e-02
  -6.6864540e-02
  -6.7354729e-03
   2.0890485e-01
  -4.6979110e-02
   1.7805839e-01
  -6.1446661e-02
  -5.3220261e-02
  -7.7010033e-02
  -3.4737067e-02
  -6.4482140e-02
  -1.1360916e-01
  -7.7859985e-02
   1.2411707e-01
   4.7381986e-02
   8.1747936e-02
  -1.2225781e-01
  -1.2288915e-01
   1.0521107e-01
   1.4264017e-01
  -5.5822086e-02
  -1.0229527e-01
   1.6725708e-01
  -7.0807449e-02
   7.8878264e-02
  -9.7281237e-02
  -1.0213397e-01
   8.9123963e-02
   1.5180781e-01
  -5.8727093e-02
  -2.9881395e-02
  -9.4121401e-02
  -6.5296239e-02
  -5.5079825e-02
   1.0887980e-01
   1.3147706e-01
  -1.6447421e-02
   1.1779530e-01
  -4.6926882e-02
  -5.0398990e-02
  -5.5239947e-02
  -1.0844039e-01
   1.6266943e-01
  -8.1021533e-02
   8.1719655e-02
  -9.1251295e-02
  -1.0828499e-01
   9.1324542e-02
   1.7163718e-01
  -6.3112657e-02
  -1.0366880e-02
  -6.7328251e-03
  -4.6502156e-02
  -7.3625209e-02
  -2.5359753e-02
  -3.4668228e-03
  -6.7031858e-02
  -2.1915946e-02
   2.7670683e-01
  -2.1705388e-02
   7.5409064e-02
  -9.1522815e-02
  -8.1320532e-02
   1.1459837e-01
  -5.3555396e-02
  -6.6126311e-02
   1.1649052e-01
  -6.8428022e-02
   1.1377996e-01
  -5.9324847e-02
  -2.3725165e-02
  -4.4865506e-02
  -6.0426235e-02
  -1.3703405e-02
   1.3644776e-01
  -7.2732167e-02
  -1.2332589e-02
   1.5795149e-01
  -4.1654383e-02
  -2.4959810e-02
  -3.1187354e-02
   2.1900758e-01
  -8.5857825e-02
  -4.9434012e-02
  -1.6868015e-02
  -5.2595912e-02
   1.4406539e-01
  -5.3092801e-02
  -4.2991816e-02
  -3.1045228e-02
   1.7129691e-01
  -2.8055180e-02
  -2.0879845e-02
  -3.0223085e-02
  -6.2456379e-03
  -1.3678089e-02
  -2.9803091e-02
  -2.7066450e-02
  -5.7940300e-03
  -9.5515030e-03
   1.7217936e-01
  -3.1236812e-02
  -2.1407755e-02
  -2.8915943e-02
  -5.8974769e-03
  -1.3122584e-02
  -2.9633593e-02
  -2.6354164e-02
  -5.7226327e-03
  -9.8883896e-03
  -5.2275187e-02
  -6.8502312e-02
  -7.1435059e-02
   1.2875837e-01
  -4.5570994e-02
  -5.2317541e-02
   1.3174388e-01
  -4.7705626e-02
   1.2446268e-01
  -4.7158206e-02
  -3.6355686e-02
  -6.8980787e-02
   1.8514301e-01
  -6.8940003e-02
   1.5919519e-01
  -5.9180655e-02
  -8.5197418e-02
  -1.3882609e-01
   1.6430728e-01
  -5.1164833e-02
  -2.4816389e-02
  -4.9510317e-02
  -4.0330875e-02
  -4.8883073e-02
   2.0850366e-01
  -5.0864042e-02
   1.9984209e-01
  -9.4724418e-02
  -6.5770717e-02
  -3.3445913e-02
  -2.4083569e-02
  -8.8814170e-02
  -2.0251696e-02
  -5.2716426e-02
  -6.6641017e-02
   1.7901818e-01
  -3.2448407e-02
  -5.8268994e-02
  -3.2449497e-02
   1.9665560e-01
  -1.0974698e-02
  -5.1779447e-02
  -2.0234852e-03
  -4.7828030e-02
  -5.1205453e-02
   2.4006701e-01
  -4.3802926e-03
  -3.9986932e-02
  -2.2613951e-03
  -2.9627274e-02
  -4.7763663e-02
   1.5435879e-01
  -1.0303898e-01
  -7.6637681e-02
   8.6298820e-02
   8.2508919e-02
  -5.3968465e-02
   7.1826341e-02
  -4.8722561e-02
  -6.4861516e-02
  -2.7396359e-02
  -1.5621826e-02
  -5.0640493e-03
   2.6001556e-01
  -7.3172211e-03
  -4.5525047e-02
  -5.8850694e-02
  -1.7402050e-02
  -7.6345408e-02
  -6.4929077e-03
  -2.8115481e-02
   2.0982411e-01
  -6.2635267e-02
  -5.0189769e-02
  -4.5647038e-02
   1.3912694e-01
  -4.5991086e-02
  -6.5134305e-02
  -9.4323111e-03
  -4.1805807e-02
   1.7188965e-01
  -2.9572315e-02
  -2.1562907e-02
  -2.9273497e-02
  -5.6974976e-03
  -1.3215490e-02
  -2.9321550e-02
  -2.7321237e-02
  -5.9985049e-03
  -9.9266599e-03
  -2.3492041e-02
  -6.9557998e-02
   2.1760935e-01
  -1.2664150e-02
   1.9201661e-01
  -5.7249306e-02
  -2.9969115e-02
  -1.2066760e-01
  -6.2784532e-02
  -3.3241223e-02
  -4.6451934e-02
   1.5254939e-01
  -1.0557508e-01
  -7.6988913e-02
   8.9073389e-02
   8.4207351e-02
  -5.4346283e-02
   7.0935041e-02
  -4.9552703e-02
  -6.3850262e-02
  -3.0009778e-02
  -9.1265105e-02
  -6.5783498e-02
  -5.4356864e-02
   1.0800817e-01
   1.2884917e-01
  -1.5571391e-02
   1.1933944e-01
  -4.7155618e-02
  -5.2054525e-02
  -5.1262810e-02
  -6.9381548e-02
  -7.2299651e-02
   1.3360732e-01
  -4.8454348e-02
  -5.4534934e-02
   1.2994292e-01
  -4.9656397e-02
   1.2599184e-01
  -4.3952384e-02
   9.1833810e-02
  -8.8861891e-02
  -2.6671144e-02
   1.8120572e-01
  -5.0712623e-02
   1.3883299e-01
  -8.4862959e-02
  -2.5517029e-02
  -8.7426788e-02
  -4.7820084e-02
   1.7117631e-01
  -2.8330215e-02
  -2.0409520e-02
  -2.9654683e-02
  -6.3558994e-03
  -1.3538999e-02
  -3.0230031e-02
  -2.7606894e-02
  -5.7160067e-03
  -9.3340561e-03
  -1.0642718e-02
  -3.0848278e-02
  -3.1050707e-02
  -1.3247900e-02
  -8.4228443e-02
  -4.0719770e-02
  -7.1607810e-03
   2.4815803e-01
  -1.7332418e-02
  -1.2927020e-02
  -1.0020162e-02
  -5.1731235e-02
  -1.8792621e-03
  -4.5651718e-02
  -4.9791421e-02
   2.3463508e-01
  -4.1607670e-03
  -3.8965619e-02
  -2.2512747e-03
  -3.0183620e-02
  -4.4372289e-02
  -9.8098147e-02
  -6.6153883e-02
  -7.4515278e-02
   1.4741870e-01
   1.1845644e-01
   7.6296230e-02
  -1.3638379e-01
  -7.9630608e-02
   1.5698264e-01
  -4.4948776e-02
  -9.7491192e-02
  -6.6834252e-02
  -7.0855624e-02
   1.4654956e-01
   1.1726214e-01
   8.1372530e-02
  -1.4166751e-01
  -7.9576074e-02
   1.5618921e-01
  -4.5456529e-02
   1.6930890e-01
  -9.5152754e-02
  -7.2122717e-02
   2.9332722e-02
   9.0831956e-02
  -5.6597093e-02
   8.9193839e-02
  -4.3981651e-02
  -6.5356660e-02
  -1.0336107e-02
  -6.8170397e-03
  -4.6652040e-02
  -7.3243825e-02
  -2.5155522e-02
  -3.5284189e-03
  -6.7916186e-02
  -2.2177703e-02
   2.7746115e-01
  -2.1634292e-02
  -1.9837787e-02
  -4.5552454e-02
  -5.9076054e-02
  -1.5401327e-02
   1.3813113e-01
  -6.9865050e-02
  -1.1694565e-02
   1.5109816e-01
  -4.2332105e-02
  -2.5469938e-02
  -4.7623517e-02
   1.3179153e-01
   1.6590733e-01
  -7.2924127e-02
  -3.8332219e-02
  -6.5028210e-02
   1.7516253e-01
  -8.3545736e-02
  -1.1475654e-01
  -5.0651057e-02
   1.1999648e-01
   1.7027453e-01
  -9.2664485e-02
  -5.1594196e-02
  -9.3709927e-02
  -8.9316992e-02
  -6.3216994e-02
   1.6587002e-01
  -3.0972749e-02
  -3.4665684e-02
   7.2557437e-02
  -9.0705726e-02
  -8.1356485e-02
   1.1613449e-01
  -5.3817524e-02
  -6.6198837e-02
   1.1685735e-01
  -6.9342475e-02
   1.1449039e-01
  -5.8618634e-02
  -2.6048959e-02
   2.0546474e-01
  -6.2929156e-02
  -5.3269657e-02
  -4.9517560e-02
   1.5347600e-01
  -4.6345391e-02
  -6.7950899e-02
  -9.1316389e-03
  -4.3747495e-02
  -2.5593355e-02
  -1.5086635e-02
  -5.1860758e-03
   2.5953074e-01
  -7.2105638e-03
  -4.6001839e-02
  -5.9474925e-02
  -1.7370690e-02
  -7.7010793e-02
  -6.5958593e-03
  -1.1408261e-02
  -5.0792212e-02
  -1.8783444e-03
  -4.7085531e-02
  -4.9984546e-02
   2.3957061e-01
  -4.7311380e-03
  -3.9880961e-02
  -2.9674221e-03
  -3.0842205e-02
  -3.0781203e-02
  -5.1818916e-02
  -5.7604646e-02
  -1.1756162e-01
  -3.6858017e-02
  -7.1081807e-03
   1.7689542e-01
  -2.9636847e-02
   1.9574248e-01
  -4.1268487e-02
  -5.4402543e-02
  -6.7333032e-02
  -7.1389211e-02
   1.3276943e-01
  -4.5021757e-02
  -5.2764131e-02
   1.2975626e-01
  -4.9050372e-02
   1.2567035e-01
  -4.8235006e-02
  -5.2751232e-02
   1.6180410e-01
  -5.7519564e-02
   1.6647901e-01
  -5.0178761e-02
   1.1655754e-01
  -7.9160557e-02
  -8.4756361e-02
  -7.6068953e-02
  -4.4405218e-02
  -4.3087559e-02
   1.7050909e-01
  -9.9876730e-02
  -7.3134996e-02
   1.0342577e-02
   9.3289958e-02
  -5.3176739e-02
   9.9310767e-02
  -4.0640375e-02
  -6.3536008e-02
  -6.3041026e-02
   1.6948456e-01
  -9.8886082e-02
   1.2514151e-01
  -6.4463909e-02
   8.9533647e-02
  -1.2378470e-01
  -9.5976587e-02
   1.1851743e-01
  -5.6524836e-02
   1.7240071e-01
  -3.0333229e-02
  -2.1668197e-02
  -2.8996330e-02
  -5.8008096e-03
  -1.3143516e-02
  -2.9417760e-02
  -2.7111610e-02
  -5.9959351e-03
  -9.9333186e-03
   1.7245253e-01
  -3.0439326e-02
  -2.1673745e-02
  -2.8974248e-02
  -5.8202824e-03
  -1.3136539e-02
  -2.9425517e-02
  -2.7065951e-02
  -5.9796779e-03
  -9.9372292e-03
  -5.0557888e-02
  -6.7976095e-02
  -7.2790669e-02
   1.3534996e-01
  -4.8314760e-02
  -5.5344598e-02
   1.2586867e-01
  -5.0568027e-02
   1.2658717e-01
  -4.2253768e-02
   1.0422213e-01
   8.2931569e-02
  -7.4017454e-02
   1.0683233e-01
  -3.5717743e-02
  -6.0432133e-02
   5.6724213e-02
  -6.5697936e-02
  -7.0777103e-02
  -4.4067851e-02
  -1.8313764e-02
  -3.3926068e-02
  -1.9712479e-02
  -1.1261362e-02
  -2.7587462e-02
  -4.6170416e-02
  -2.6650926e-02
  -1.9559239e-02
  -3.3108304e-02
   2.3629002e-01
   9.0323424e-02
  -1.3626960e-01
  -9.0605597e-02
  -9.6959775e-02
   6.7128432e-02
   8.1539534e-02
  -5.3700577e-02
   5.9226072e-02
  -7.9068258e-02
   1.5838635e-01
   8.4767156e-02
  -8.2574767e-02
  -7.7205116e-02
   1.0076419e-01
  -1.0525184e-01
   8.9241020e-02
   9.8690054e-02
  -1.2325461e-02
  -1.4329576e-02
  -8.1775671e-02
  -2.9997507e-02
  -9.2125527e-02
  -6.5729619e-02
  -5.4318961e-02
   1.0978552e-01
   1.3058575e-01
  -1.7094148e-02
   1.1680734e-01
  -4.7183539e-02
  -5.0729312e-02
  -3.7534965e-02
   1.4683381e-01
   1.7948486e-01
  -5.7830793e-02
  -5.8931322e-02
  -5.7736969e-02
   1.0202704e-01
  -7.9286606e-02
  -8.7811647e-02
  -4.9213384e-02
  -1.8458456e-02
  -3.4095157e-02
  -1.9842160e-02
  -1.1102919e-02
  -2.7607801e-02
  -4.6652844e-02
  -2.6790061e-02
  -1.9383152e-02
  -3.3442042e-02
   2.3737460e-01
  -7.7152660e-02
   1.4040458e-01
  -1.3335644e-01
  -1.2116455e-01
  -1.4574139e-01
  -1.3497335e-01
   7.4407402e-02
   1.2882357e-01
   1.2262239e-01
   1.4613044e-01
  -2.9297255e-02
  -9.1368895e-02
  -6.4119127e-02
  -5.8587148e-02
   1.0355413e-01
   1.3424169e-01
  -1.5789546e-02
   1.1977137e-01
  -4.6202188e-02
  -5.2203023e-02
   1.7246609e-01
  -3.0453526e-02
  -2.1676819e-02
  -2.8974259e-02
  -5.8233982e-03
  -1.3136676e-02
  -2.9424661e-02
  -2.7060547e-02
  -5.9781434e-03
  -9.9380668e-03
  -1.8190699e-02
  -3.6540100e-02
  -1.6559186e-02
  -1.1251812e-02
  -2.7191583e-02
  -4.6320531e-02
  -2.6383138e-02
  -1.8952808e-02
  -3.4091268e-02
   2.3548113e-01
  -6.3522937e-02
  -1.1335890e-01
  -7.6762675e-02
   1.1397934e-01
   3.3339938e-02
   8.8040821e-02
  -1.2118154e-01
  -1.1772901e-01
   1.1286609e-01
   1.4432889e-01
   4.4495672e-02
   2.9909299e-02
   1.1671124e-01
   9.1938817e-02
  -1.3802023e-01
   3.6715723e-02
   3.9882412e-02
   3.6139042e-02
  -1.6993336e-01
  -8.7838635e-02
  -5.5139436e-02
  -1.0634248e-01
   1.6120111e-01
  -9.1180393e-02
   7.2949928e-02
  -8.8796540e-02
  -1.0529456e-01
   9.3131069e-02
   1.7835878e-01
  -5.8887480e-02
  -2.5554904e-02
  -1.4988912e-02
  -5.1920760e-03
   2.5949034e-01
  -7.0684622e-03
  -4.6193504e-02
  -5.9439549e-02
  -1.7424853e-02
  -7.7064051e-02
  -6.5640213e-03
  -2.3873102e-02
  -4.4293652e-02
  -6.0362023e-02
  -1.4124815e-02
   1.3837167e-01
  -7.2933975e-02
  -1.3131819e-02
   1.5538245e-01
  -3.9433097e-02
  -2.5601634e-02
   1.6985916e-01
  -3.0769880e-02
  -2.1274749e-02
  -2.9112713e-02
  -5.5709782e-03
  -1.3116262e-02
  -2.9032701e-02
  -2.6021749e-02
  -5.4708451e-03
  -9.4892716e-03
   6.4120016e-02
  -6.0582871e-02
  -5.6832104e-02
   1.9463497e-01
   7.2055334e-02
  -1.0961506e-01
  -8.7441193e-02
   1.0891377e-01
  -8.4646674e-02
  -4.0606158e-02
   1.7256003e-01
  -3.0756151e-02
  -2.1677337e-02
  -2.8929079e-02
  -5.8779925e-03
  -1.3134905e-02
  -2.9428696e-02
  -2.6884073e-02
  -5.9210497e-03
  -9.9507450e-03
  -4.3981179e-02
   1.6287863e-01
  -1.1031645e-01
  -6.2268985e-02
   1.3389337e-01
   7.2725251e-02
  -7.4662056e-02
  -1.6520815e-01
  -6.7856207e-02
   1.5479577e-01
  -6.1113924e-02
   1.2395570e-01
  -8.1352330e-02
   1.6107678e-01
  -7.6112988e-02
   8.1297528e-02
  -9.2613785e-02
   1.0249865e-01
  -9.2709643e-02
  -6.4925988e-02
  -1.0176623e-02
  -6.6732475e-03
  -4.6890853e-02
  -7.2731622e-02
  -2.5053815e-02
  -3.2982526e-03
  -6.8186250e-02
  -2.2770367e-02
   2.7818011e-01
  -2.2399075e-02
  -4.5181686e-02
  -5.7626447e-02
  -9.1194193e-02
   8.4670339e-02
   1.0272523e-01
  -1.0016192e-01
  -4.8598843e-02
   1.1203217e-01
   9.5940576e-02
  -5.2605240e-02
   1.7050255e-01
  -3.1766086e-02
  -2.1159834e-02
  -2.9141124e-02
  -5.2454149e-03
  -1.2857081e-02
  -2.9578740e-02
  -2.5607206e-02
  -5.4323300e-03
  -9.7147447e-03
  -3.3345672e-02
   2.2056750e-01
  -9.2854772e-02
  -5.4563954e-02
  -1.9759948e-02
  -5.5297760e-02
   1.6789924e-01
  -5.4537259e-02
  -4.3932665e-02
  -3.4174705e-02
  -4.1120420e-03
  -5.5581744e-03
  -3.8137665e-02
  -3.5502899e-03
   2.3474246e-01
  -4.7836762e-02
  -5.5892173e-03
  -9.0447631e-02
  -2.5171016e-02
  -1.4339670e-02
   1.7109106e-01
  -2.8277434e-02
  -2.0420028e-02
  -2.9706718e-02
  -6.3623886e-03
  -1.3520065e-02
  -3.0208131e-02
  -2.7569817e-02
  -5.7021572e-03
  -9.3243074e-03
  -6.6436814e-02
   9.8558546e-02
   1.3062222e-01
  -8.6811404e-02
   1.3030406e-02
  -1.1457027e-01
   1.5672509e-01
  -1.1950175e-01
  -1.5323154e-01
   1.4161554e-01
  -3.9621903e-02
  -6.7469345e-02
  -7.3224064e-03
   2.0895493e-01
  -4.5655862e-02
   1.7792027e-01
  -6.1643844e-02
  -5.3593658e-02
  -7.6567520e-02
  -3.5000675e-02
  -2.7318425e-02
  -8.7922327e-02
   1.0877588e-01
  -6.0080470e-02
   1.6567422e-01
  -5.1250809e-02
   1.9731599e-01
  -9.7967232e-02
  -1.0304652e-01
  -4.4180312e-02
  -5.6576475e-02
  -1.1658481e-01
   1.6033028e-01
  -9.8246879e-02
  -1.5335327e-01
  -8.1699219e-02
  -1.1942579e-01
   1.4147967e-01
   1.6040580e-01
   1.6367070e-01
   6.0564200e-02
   2.6027630e-02
   9.7964365e-02
   8.1643196e-02
  -1.2537895e-01
  -3.1106383e-02
   4.7276381e-02
   4.4677999e-02
  -1.1552406e-01
  -8.6144391e-02
  -7.8653047e-02
   1.3830344e-01
  -1.3438140e-01
  -1.2700150e-01
  -1.4530452e-01
  -1.3377851e-01
   7.9647307e-02
   1.2708687e-01
   1.3022021e-01
   1.4386114e-01
  -1.2057881e-02
  -2.0504030e-02
  -4.3915735e-02
  -2.3957110e-02
   2.2052552e-01
  -5.2024298e-02
   9.2344623e-02
  -9.2175840e-02
  -4.1804275e-02
  -2.6430967e-02
  -5.1902727e-02
  -7.1817061e-02
  -7.1738783e-02
   1.3461936e-01
  -4.7258586e-02
  -5.4342850e-02
   1.3446479e-01
  -4.8710165e-02
   1.2463730e-01
  -4.7951282e-02
  -5.3923958e-02
  -9.8289404e-02
  -5.4984264e-02
   1.9634646e-01
   9.4781206e-02
   9.2553832e-02
  -7.6607509e-02
   7.0297746e-02
  -1.1000393e-01
  -6.0170187e-02
  -4.3886329e-02
  -7.3542440e-02
  -6.8563901e-02
   1.3583540e-01
  -4.7027384e-02
  -5.5035816e-02
   1.3371185e-01
  -5.1599718e-02
   1.1874004e-01
  -4.8631691e-02
   1.7253911e-01
  -3.0888318e-02
  -2.1640309e-02
  -2.8955580e-02
  -5.9088081e-03
  -1.3124380e-02
  -2.9427790e-02
  -2.6801712e-02
  -5.8462445e-03
  -9.9459735e-03
  -3.4888805e-02
   1.0478815e-01
   1.4696819e-01
  -8.2561638e-02
   3.2471276e-02
   8.5031948e-02
  -8.9447998e-02
   2.5104673e-02
  -9.5460254e-02
  -9.2005529e-02
  -3.8000456e-02
   1.0725996e-01
   1.5618965e-01
  -7.9089711e-02
  -5.9433759e-02
   1.0205555e-01
  -7.7495878e-02
   5.0658598e-02
  -8.2143475e-02
  -8.0000467e-02
  -6.4048494e-02
   1.2174510e-01
  -7.6922079e-02
   1.7046283e-01
  -9.2195258e-02
   7.9122116e-02
  -9.8189039e-02
   1.0961275e-01
  -9.1325379e-02
  -5.8262561e-02
  -7.6346489e-02
   1.3935453e-01
  -1.4142286e-01
  -1.3014724e-01
  -1.4116073e-01
  -1.2905110e-01
   8.1038278e-02
   1.1927957e-01
   1.3395601e-01
   1.4450002e-01
  -5.1145224e-02
  -7.1422801e-02
  -7.1925102e-02
   1.3397838e-01
  -4.7254480e-02
  -5.4479280e-02
   1.3258456e-01
  -4.8822219e-02
   1.2473108e-01
  -4.6244909e-02
  -1.0861579e-02
  -1.7004016e-02
  -4.3586664e-02
  -1.6989790e-02
   2.2342592e-01
  -4.8756962e-02
   6.0188620e-02
  -9.0442402e-02
  -3.5097071e-02
  -2.0876052e-02
  -2.9828633e-02
  -9.1821039e-02
  -6.2436490e-02
  -5.7921458e-02
   1.0314222e-01
   1.3301446e-01
  -1.5263375e-02
   1.1952407e-01
  -4.6313193e-02
  -5.2096543e-02
  -4.3903728e-02
  -9.8740627e-02
  -6.2574896e-02
  -7.4175788e-02
   1.4279502e-01
   1.1853391e-01
   7.7438879e-02
  -1.3770476e-01
  -8.2403031e-02
   1.6073503e-01
  -1.1234194e-02
  -5.0567870e-02
  -1.9306576e-03
  -4.6699460e-02
  -4.9844187e-02
   2.3841903e-01
  -4.7702074e-03
  -3.9862654e-02
  -2.9494048e-03
  -3.0560399e-02
  -2.3517163e-02
  -4.4943798e-02
  -5.9291285e-02
  -1.3623210e-02
   1.3660306e-01
  -7.2445727e-02
  -1.3424016e-02
   1.5629814e-01
  -4.0370248e-02
  -2.5285782e-02
  -2.3684518e-02
  -4.4626891e-02
  -5.9325746e-02
  -1.3975155e-02
   1.3738303e-01
  -7.2740236e-02
  -1.2372923e-02
   1.5522414e-01
  -4.1021208e-02
  -2.4860510e-02
   6.0077112e-02
   3.8421862e-02
   1.2557928e-01
   1.0537662e-01
  -1.3217324e-01
  -9.1586926e-02
   3.8459252e-02
   6.5504525e-02
  -1.3278397e-01
  -7.6874517e-02
  -2.6662748e-02
  -5.0054119e-02
  -2.3824809e-02
  -2.6801451e-02
  -3.8306948e-02
  -4.5872063e-02
   7.3890676e-02
  -2.3219089e-02
  -5.7632371e-02
   2.1848291e-01
  -4.8150726e-02
   1.3836653e-01
   1.7102286e-01
  -7.1536457e-02
  -5.5560009e-02
  -6.2374950e-02
   1.6781024e-01
  -8.3914389e-02
  -1.0398350e-01
  -5.1679599e-02
   1.7247882e-01
  -3.0472349e-02
  -2.1678077e-02
  -2.8973069e-02
  -5.8281359e-03
  -1.3135628e-02
  -2.9425599e-02
  -2.7053068e-02
  -5.9738242e-03
  -9.9390580e-03
   1.7247846e-01
  -3.0487830e-02
  -2.1678364e-02
  -2.8964837e-02
  -5.8304349e-03
  -1.3134955e-02
  -2.9427806e-02
  -2.7041355e-02
  -5.9729620e-03
  -9.9399110e-03
   9.8693157e-02
   1.2673544e-01
   1.4702978e-01
  -6.8093188e-02
  -1.3613767e-01
  -1.0137351e-01
  -7.1935734e-02
   1.3446222e-01
  -7.5438624e-02
  -5.3941882e-02
  -5.7227072e-02
  -1.1023734e-01
   1.4639439e-01
  -9.9658797e-02
  -1.5079464e-01
  -8.5650477e-02
  -1.2073600e-01
   1.4282769e-01
   1.6733738e-01
   1.6774487e-01
  -3.5570695e-02
  -2.1863614e-02
  -5.3712034e-02
   1.8559774e-01
  -2.6569247e-02
  -4.9459233e-02
  -1.2134635e-01
  -4.0639019e-02
   1.8824231e-01
  -2.4679863e-02
  -3.0904436e-02
  -5.1505273e-02
  -5.3464552e-02
  -1.2061917e-01
  -3.6570647e-02
  -8.6500670e-03
   1.8183597e-01
  -2.8799346e-02
   1.9024183e-01
  -4.1564315e-02
   9.9227302e-02
   9.3738080e-02
  -7.4484245e-02
   1.0587048e-01
  -4.0275529e-02
  -5.7405958e-02
   6.0732403e-02
  -6.5431408e-02
  -7.3663120e-02
  -4.8308007e-02
  -6.6575682e-02
   1.0226612e-01
   8.2064981e-02
  -1.4217704e-01
   8.9354377e-02
  -1.2290535e-01
   1.0477657e-01
  -6.1832782e-02
   1.0394810e-01
  -8.8919296e-02
  -1.8432823e-02
  -3.4118238e-02
  -1.9785747e-02
  -1.1109958e-02
  -2.7612816e-02
  -4.6587374e-02
  -2.6758916e-02
  -1.9396432e-02
  -3.3419875e-02
   2.3722219e-01
  -5.1484089e-02
  -6.9926841e-02
  -7.1143883e-02
   1.2949514e-01
  -4.6335762e-02
  -5.2288186e-02
   1.3445418e-01
  -4.8672276e-02
   1.2353946e-01
  -4.7637763e-02
  -1.7991357e-02
  -3.8527190e-02
  -1.5145777e-02
  -1.2241689e-02
  -2.8047123e-02
  -4.3394058e-02
  -2.0482019e-02
  -2.0312518e-02
  -3.4461550e-02
   2.3060329e-01
  -6.1134236e-02
   1.3047428e-01
  -8.2996830e-02
   1.6144167e-01
  -9.1532667e-02
   7.9347952e-02
  -9.7061654e-02
   1.1329235e-01
  -8.7709099e-02
  -6.4121786e-02
  -2.0452944e-02
  -4.6748858e-02
  -2.0366493e-02
  -4.9037417e-02
  -1.5824267e-02
  -4.7872945e-03
   2.4936058e-01
  -7.9297468e-03
  -6.4646660e-02
  -1.9566898e-02
  -2.8569702e-02
  -5.6878281e-02
  -4.6574253e-02
  -6.0828954e-02
  -4.1650262e-02
  -5.2683076e-02
   1.8096371e-01
  -3.3099808e-02
  -6.7534270e-02
   2.0685490e-01
  -5.1588823e-02
  -5.0925815e-02
  -8.8654272e-02
   1.0726854e-01
   7.5585049e-02
  -1.0406051e-01
  -1.0928162e-01
   1.1455827e-01
   1.5712437e-01
  -5.0025175e-02
  -7.6433030e-03
  -8.5145736e-03
  -3.8703137e-02
  -1.1820324e-02
   2.2540717e-01
  -4.8664990e-02
   2.9938765e-02
  -8.8719228e-02
  -3.2720872e-02
  -1.8559491e-02
   5.8459605e-02
   2.0015165e-02
   9.6609841e-02
   7.5095880e-02
  -1.3449484e-01
   7.9668290e-03
   4.5357395e-02
   3.8166722e-02
  -1.1025946e-01
  -9.6917134e-02
  -6.6044022e-02
   1.2578660e-01
  -8.0535882e-02
   1.6608058e-01
  -1.0521578e-01
   8.0103227e-02
  -9.3973970e-02
   1.2542515e-01
  -9.4392592e-02
  -5.7233299e-02
  -2.9857207e-02
  -9.1232919e-02
  -6.6109557e-02
  -5.3625712e-02
   1.0943778e-01
   1.2846344e-01
  -1.6624410e-02
   1.1823291e-01
  -4.7636517e-02
  -5.1047820e-02
  -1.8849048e-02
  -6.5846916e-02
   2.6955953e-01
  -8.6285852e-03
  -4.2867310e-02
  -5.9473584e-03
  -2.2184627e-02
  -3.7293325e-02
  -5.0842373e-02
  -1.7099975e-02
  -2.6587552e-02
  -1.5932772e-02
  -5.3024730e-03
   2.5920453e-01
  -7.3457156e-03
  -4.5498418e-02
  -5.9034037e-02
  -1.6922389e-02
  -7.5813859e-02
  -6.7673029e-03
   9.1224983e-02
  -1.3761383e-01
  -9.4385793e-02
  -9.6444796e-02
   6.3820912e-02
   8.0435356e-02
  -5.4246014e-02
   6.8931198e-02
  -7.8617310e-02
   1.5689530e-01
  -3.4958625e-02
  -6.9108257e-02
   1.8896755e-01
  -7.1952382e-02
   1.5619100e-01
  -5.8762718e-02
  -8.7752307e-02
  -1.3651304e-01
   1.6293545e-01
  -4.9046662e-02
  -1.1418779e-02
  -5.0848095e-02
  -1.8647717e-03
  -4.7313893e-02
  -5.0096208e-02
   2.3986402e-01
  -4.7436444e-03
  -3.9907489e-02
  -2.9725909e-03
  -3.0698556e-02
  -5.1554171e-02
  -6.9601362e-02
  -7.0657381e-02
   1.2942358e-01
  -4.6635677e-02
  -5.2230681e-02
   1.3396061e-01
  -4.8381590e-02
   1.2352389e-01
  -4.7847238e-02
   3.9243707e-02
  -4.5257299e-02
  -2.0324029e-02
  -6.3425417e-02
  -1.6816296e-02
  -1.2916989e-02
   2.3986301e-01
  -2.2131042e-02
  -7.2526079e-02
  -2.5709571e-02
  -3.4770146e-02
  -7.1643544e-02
   1.9015599e-01
  -6.8883349e-02
   1.5859276e-01
  -5.9316615e-02
  -8.0350294e-02
  -1.3860265e-01
   1.5431176e-01
  -4.9493924e-02
  -3.7180495e-02
   1.5040795e-01
   1.8213751e-01
  -5.5665051e-02
  -5.9085205e-02
  -5.7021441e-02
   9.1190086e-02
  -7.9125733e-02
  -8.7109889e-02
  -4.8547730e-02
  -4.4834869e-02
   1.7983152e-01
  -8.3756736e-02
  -6.3769634e-02
  -8.1958589e-02
   1.2439275e-01
  -7.4238220e-02
  -8.6476080e-02
  -4.0844260e-02
   1.7165411e-01
  -2.9839381e-02
  -9.1598780e-02
  -6.3751225e-02
  -5.8162110e-02
   1.0535327e-01
   1.3335817e-01
  -1.4966422e-02
   1.1942969e-01
  -4.6527335e-02
  -5.3295881e-02
  -2.2327471e-02
  -4.4812301e-02
  -1.7900424e-02
  -5.0092628e-02
  -1.5852550e-02
  -4.8577350e-03
   2.5160852e-01
  -8.4900431e-03
  -6.7451932e-02
  -1.9823437e-02
   1.7085375e-01
  -3.1514135e-02
  -2.0971285e-02
  -2.9074758e-02
  -5.4700625e-03
  -1.2941591e-02
  -3.0031440e-02
  -2.5710933e-02
  -5.4145621e-03
  -9.7249920e-03
   1.7255696e-01
  -3.0665387e-02
  -2.1685165e-02
  -2.8942966e-02
  -5.8621289e-03
  -1.3134681e-02
  -2.9427423e-02
  -2.6949169e-02
  -5.9417595e-03
  -9.9482841e-03
   1.7237151e-01
  -2.8683358e-02
  -2.0469065e-02
  -2.9302362e-02
  -6.3012837e-03
  -1.3653749e-02
  -3.0858282e-02
  -2.7746856e-02
  -5.8863184e-03
  -9.4702533e-03
  -3.0004903e-02
  -9.1582806e-02
  -6.5019251e-02
  -5.4626963e-02
   1.0685960e-01
   1.2941858e-01
  -1.5283661e-02
   1.1952808e-01
  -4.7267728e-02
  -5.2020938e-02
  -1.8436676e-02
  -3.4104077e-02
  -1.9787063e-02
  -1.1117679e-02
  -2.7592899e-02
  -4.6594801e-02
  -2.6753019e-02
  -1.9409981e-02
  -3.3411298e-02
   2.3720750e-01
   8.3213232e-02
   8.4043362e-02
   1.3310532e-01
  -1.0350247e-01
  -1.3334398e-01
  -1.0427737e-01
   1.1531403e-01
   1.0663213e-01
  -1.1814377e-01
  -6.3040487e-02
  -5.7794587e-02
  -1.1175388e-01
   1.5234476e-01
  -1.0049099e-01
  -1.5046301e-01
  -8.5179847e-02
  -1.2019067e-01
   1.4076193e-01
   1.6558295e-01
   1.6718333e-01
  -2.1178106e-02
  -4.6472425e-02
  -2.0076189e-02
  -4.8200225e-02
  -1.5792329e-02
  -5.0024263e-03
   2.4877163e-01
  -8.0660116e-03
  -6.4359012e-02
  -1.9624916e-02
   1.0334283e-01
   1.1840913e-01
   1.6257968e-01
  -7.8853928e-02
  -7.0336324e-02
  -6.7225274e-02
   9.0042064e-02
  -1.0286805e-01
  -9.9215011e-02
  -5.5875125e-02
  -4.5285894e-02
   1.8120400e-01
  -8.4085867e-02
  -6.1997052e-02
  -8.1451940e-02
   1.2342113e-01
  -7.5452335e-02
  -8.8289047e-02
  -4.1121259e-02
   1.7305826e-01
  -2.2557406e-02
  -4.4303954e-02
  -4.9105960e-02
  -4.7201011e-02
   2.1187655e-01
  -5.1685868e-02
   1.8601533e-01
  -9.6142870e-02
  -5.4819280e-02
  -3.2075521e-02
  -4.6775248e-02
   1.5185921e-01
  -1.0591182e-01
  -7.6624669e-02
   8.9711954e-02
   8.4451925e-02
  -5.5607637e-02
   7.2558661e-02
  -4.9991206e-02
  -6.3671160e-02
   9.3003995e-02
   8.9442339e-02
  -8.0930532e-02
   1.0582436e-01
  -5.0410674e-02
  -5.8142363e-02
   7.5761123e-02
  -6.2945216e-02
  -5.5627075e-02
  -5.5975962e-02
   1.7250984e-01
  -3.0544348e-02
  -2.1681875e-02
  -2.8957789e-02
  -5.8401218e-03
  -1.3134754e-02
  -2.9427561e-02
  -2.7015099e-02
  -5.9649658e-03
  -9.9433184e-03
   1.7084098e-01
  -2.8217573e-02
  -2.0422956e-02
  -2.9774741e-02
  -6.3437602e-03
  -1.3489267e-02
  -3.0142891e-02
  -2.7475208e-02
  -5.6686519e-03
  -9.3059206e-03
   1.0932123e-01
  -4.9294836e-02
  -2.8287482e-02
  -7.5670375e-02
  -1.9141890e-02
  -1.9959834e-02
   2.2203026e-01
  -3.2162440e-02
  -7.5568299e-02
  -3.1266350e-02
  -5.5148226e-02
  -1.0031243e-01
   1.6290060e-01
  -9.0144330e-02
   4.6226268e-02
  -8.1234607e-02
  -1.0203869e-01
   9.6294090e-02
   1.8189806e-01
  -5.8440727e-02
  -3.8766407e-02
   2.3889217e-01
  -8.1938113e-02
  -2.2684653e-02
  -3.6568179e-02
  -9.1217625e-02
  -7.6836458e-02
  -5.7271685e-02
  -3.8445601e-02
   2.0483656e-01
  -2.4275934e-02
  -4.4669042e-02
  -5.8972743e-02
  -1.4488458e-02
   1.3820921e-01
  -7.2145137e-02
  -1.1831956e-02
   1.5470901e-01
  -4.1731216e-02
  -2.4803747e-02
  -9.8638485e-03
  -3.5275335e-02
  -3.0432944e-02
  -1.3138321e-02
  -8.3578935e-02
  -4.0082567e-02
  -6.8692088e-03
   2.4925043e-01
  -1.7582534e-02
  -1.2426741e-02
  -3.7181841e-02
   1.4100866e-01
   1.7618770e-01
  -5.9535042e-02
  -5.6648598e-02
  -5.8609027e-02
   1.1913549e-01
  -8.0788266e-02
  -9.3655935e-02
  -4.9913138e-02
   1.2989734e-01
  -9.1580589e-02
  -2.8356482e-02
   1.7823834e-01
  -5.2782713e-02
   1.4974072e-01
  -7.6518636e-02
  -7.7882424e-02
  -8.5419855e-02
  -4.5335712e-02
   1.2095267e-01
  -4.9399701e-02
  -4.6354492e-02
  -3.5889958e-02
  -8.7700655e-02
  -5.1537924e-02
  -2.6118206e-02
   2.2320440e-01
  -2.4635088e-02
  -2.2521047e-02
  -1.8423815e-02
  -3.4186509e-02
  -1.9791492e-02
  -1.0971511e-02
  -2.7682200e-02
  -4.6730572e-02
  -2.6741043e-02
  -1.9288913e-02
  -3.3546568e-02
   2.3736263e-01
   1.6550985e-01
  -1.9548672e-02
  -2.9677698e-02
  -2.2316899e-02
  -8.1051050e-03
  -1.5546838e-02
  -1.7772229e-02
  -2.9142513e-02
  -1.0947330e-02
  -1.2452567e-02
  -3.0561397e-02
  -9.2483694e-02
  -5.5637270e-02
  -5.9763706e-02
   1.4290027e-01
   1.3188507e-01
  -2.5012925e-02
  -1.2636913e-01
  -5.8527319e-02
   1.7357009e-01
  -3.5992066e-02
  -2.2510281e-02
  -5.2244277e-02
   1.8486363e-01
  -2.7449361e-02
  -5.1302787e-02
  -1.0524628e-01
  -4.0108323e-02
   1.7820791e-01
  -2.8218175e-02
  -3.8777398e-02
   1.4416269e-01
   1.7096701e-01
  -6.3259494e-02
  -4.9393273e-02
  -6.0627471e-02
   1.2693765e-01
  -8.6143121e-02
  -9.4085771e-02
  -4.9780827e-02
   1.7252439e-01
  -3.0574402e-02
  -2.1684125e-02
  -2.8953877e-02
  -5.8440909e-03
  -1.3134660e-02
  -2.9426508e-02
  -2.7003651e-02
  -5.9592342e-03
  -9.9438458e-03
  -5.0178628e-02
   1.3867951e-01
  -1.0076913e-01
  -7.4846738e-02
   9.2108243e-02
   8.7730792e-02
  -5.1858257e-02
   7.6720205e-02
  -4.9914029e-02
  -6.7671980e-02
   1.7127648e-01
  -2.8455558e-02
  -2.0385389e-02
  -2.9493539e-02
  -6.3255688e-03
  -1.3581295e-02
  -3.0275062e-02
  -2.7655214e-02
  -5.7478114e-03
  -9.3570386e-03
  -1.5419811e-02
  -6.9489149e-02
   2.6913577e-01
  -1.0800178e-02
  -4.4694210e-02
  -5.5859562e-03
  -1.3180983e-02
  -3.9759946e-02
  -5.1190182e-02
  -1.9015375e-02
  -5.4025947e-02
  -7.3052651e-02
  -7.0383165e-02
   1.3763826e-01
  -4.4042238e-02
  -5.4970560e-02
   1.3572570e-01
  -5.1038860e-02
   1.2057070e-01
  -4.6421233e-02
   1.0857782e-01
  -5.1474909e-02
  -2.6453712e-02
  -7.5149088e-02
  -1.9262587e-02
  -1.9434420e-02
   2.2219730e-01
  -3.2299272e-02
  -7.5711038e-02
  -3.0990110e-02
   6.9246334e-02
   8.8485949e-02
   8.1315113e-02
  -1.0768364e-01
   1.0906476e-01
  -1.5001326e-01
  -1.4857762e-01
  -1.9299191e-01
   1.1758855e-01
   1.3356570e-01
  -3.0989779e-02
  -5.2790454e-02
  -5.7667115e-02
  -1.1804898e-01
  -3.7297230e-02
  -7.5825797e-03
   1.7760225e-01
  -2.9206962e-02
   1.9676377e-01
  -4.0782917e-02
   9.1999996e-02
   1.1464920e-01
   1.4319639e-01
   1.3293983e-02
  -1.3839181e-01
  -1.1496773e-01
  -9.4913717e-02
   1.2726293e-01
  -8.9864897e-02
  -5.2264352e-02
   7.2310013e-02
  -9.0305243e-02
  -8.1642526e-02
   1.1600133e-01
  -5.3708027e-02
  -6.6302768e-02
   1.1664487e-01
  -6.9451246e-02
   1.1499674e-01
  -5.8543149e-02
  -3.9542076e-02
  -6.7585135e-02
  -7.4013637e-03
   2.0890780e-01
  -4.5509810e-02
   1.7781745e-01
  -6.1717120e-02
  -5.3580056e-02
  -7.6345762e-02
  -3.5043938e-02
   1.7143141e-01
  -2.8515476e-02
  -2.0379197e-02
  -2.9395765e-02
  -6.3185809e-03
  -1.3610214e-02
  -3.0368102e-02
  -2.7673472e-02
  -5.7809810e-03
  -9.3896032e-03
  -3.6282974e-02
   1.4886672e-01
   1.7784628e-01
  -3.2027167e-02
  -8.1568803e-02
  -9.6649638e-02
  -9.0745200e-02
  -8.3267536e-02
  -8.8247557e-02
   1.8207588e-01
   1.7251434e-01
  -3.0562033e-02
  -2.1682353e-02
  -2.8953225e-02
  -5.8432001e-03
  -1.3133842e-02
  -2.9428612e-02
  -2.7005465e-02
  -5.9620098e-03
  -9.9436070e-03
  -5.6289646e-02
  -1.0893999e-01
   1.6952145e-01
  -9.1719365e-02
   7.5470421e-02
  -8.6284159e-02
  -1.0868235e-01
   8.3191857e-02
   1.7914666e-01
  -5.5414899e-02
  -2.2755797e-02
  -6.6723729e-02
   2.7771153e-01
  -8.3547553e-03
  -4.3760443e-02
  -5.4491839e-03
  -2.3366325e-02
  -3.8024883e-02
  -5.1274351e-02
  -1.8002052e-02
  -2.3597968e-02
  -4.4775910e-02
  -5.9721106e-02
  -1.3745323e-02
   1.3644876e-01
  -7.2711904e-02
  -1.2268248e-02
   1.5690700e-01
  -4.1720471e-02
  -2.4814823e-02
   4.0814113e-02
  -7.4235774e-02
  -1.7328490e-02
   1.9596224e-01
  -5.1156706e-02
   1.6156619e-01
  -7.7008723e-02
  -5.6983483e-02
  -8.3530527e-02
  -3.8098851e-02
  -1.8434385e-02
  -3.4173868e-02
  -1.9797451e-02
  -1.1010395e-02
  -2.7665400e-02
  -4.6702103e-02
  -2.6756465e-02
  -1.9316122e-02
  -3.3518741e-02
   2.3737493e-01
  -2.6629623e-02
   2.0560361e-01
  -6.0121684e-02
  -5.4621840e-02
  -4.8277013e-02
   1.4883515e-01
  -4.4632081e-02
  -6.8671502e-02
  -8.7979739e-03
  -4.2687046e-02
   1.7123483e-01
  -2.8399231e-02
  -2.0397258e-02
  -2.9566993e-02
  -6.3388300e-03
  -1.3562905e-02
  -3.0250507e-02
  -2.7640666e-02
  -5.7325304e-03
  -9.3459039e-03
  -1.1400705e-02
  -5.0875327e-02
  -1.8594702e-03
  -4.7462986e-02
  -5.0084514e-02
   2.3964129e-01
  -4.7416595e-03
  -3.9834565e-02
  -2.9873707e-03
  -3.0394680e-02
  -3.6894037e-02
  -7.8500193e-02
   1.9201794e-01
  -7.8644221e-02
   1.4962399e-01
  -5.8257201e-02
  -9.4337677e-02
  -1.2791270e-01
   1.8050923e-01
  -4.7605140e-02
   1.5128400e-01
   3.5718725e-02
  -5.4124404e-02
   3.5347606e-03
  -1.4347114e-02
  -3.7749483e-02
   1.0502648e-02
  -4.5330524e-02
  -2.7937581e-02
  -2.1551017e-02
  -1.8896890e-02
  -3.9454196e-02
  -1.5782637e-02
  -1.4393488e-02
  -3.0730897e-02
  -4.3649251e-02
  -4.2326730e-03
  -2.0776108e-02
  -4.0594563e-02
   2.2851071e-01
  -3.2589967e-02
  -6.4625632e-02
  -3.7717958e-02
  -5.1274997e-02
  -4.2223974e-02
  -4.8319124e-02
   1.6010037e-01
  -2.9268107e-02
  -6.4815288e-02
   2.1073467e-01
  -2.1788955e-02
  -7.0619673e-02
   2.1905629e-01
  -1.1868525e-02
   1.9312513e-01
  -5.7364416e-02
  -2.8998444e-02
  -1.2157037e-01
  -6.6423660e-02
  -3.3547396e-02
  -5.5686504e-02
  -1.0866388e-01
   1.7083462e-01
  -9.1870114e-02
   7.0110379e-02
  -8.6324188e-02
  -1.0798685e-01
   8.8667269e-02
   1.7923893e-01
  -5.8319658e-02
   1.7110103e-01
  -2.8292860e-02
  -2.0413143e-02
  -2.9686806e-02
  -6.3598790e-03
  -1.3523321e-02
  -3.0213157e-02
  -2.7581228e-02
  -5.7082099e-03
  -9.3224401e-03
  -2.1143230e-02
  -6.9887686e-02
   2.1829222e-01
  -1.1346067e-02
   1.9348226e-01
  -5.8104855e-02
  -2.8509865e-02
  -1.2159968e-01
  -6.7593079e-02
  -3.3590005e-02
  -2.9610139e-02
  -9.1529827e-02
  -6.2061126e-02
  -5.7768105e-02
   1.0231670e-01
   1.3405003e-01
  -1.5350548e-02
   1.1981458e-01
  -4.7259874e-02
  -5.2601687e-02
  -1.2661237e-02
  -1.9693089e-02
  -4.4251568e-02
  -2.1624704e-02
   2.2020938e-01
  -4.8818860e-02
   7.3974375e-02
  -9.1839271e-02
  -3.5250670e-02
  -2.0044359e-02
   1.1345042e-01
   1.6575442e-01
  -7.6210255e-02
  -8.4344702e-02
  -5.9328055e-02
   1.5885888e-01
  -5.6098115e-02
  -9.7526778e-02
  -1.4250824e-02
  -5.0304992e-02
  -2.1591167e-02
  -8.8082312e-02
  -1.5901880e-02
  -5.4383706e-02
  -7.7505951e-02
   1.8536887e-01
  -2.9106978e-02
  -6.1382899e-02
  -3.3188425e-02
   1.9577446e-01
  -4.6781033e-02
   1.5063879e-01
  -1.0202108e-01
  -7.7155009e-02
   8.9623555e-02
   8.3239016e-02
  -5.5926915e-02
   7.1395874e-02
  -5.0415311e-02
  -6.2597880e-02
  -4.7981108e-02
  -7.3612472e-02
  -7.0501001e-02
   1.3760315e-01
  -4.4790388e-02
  -5.4801137e-02
   1.3427394e-01
  -5.2017471e-02
   1.2015479e-01
  -4.8328294e-02
   1.1859608e-01
  -5.6408032e-02
  -4.8618910e-02
  -3.1177310e-03
  -8.7976704e-02
  -5.7000708e-02
  -3.5986368e-02
   2.1701457e-01
  -2.3171472e-02
  -2.3330720e-02
   9.8639621e-02
   1.1921413e-01
   1.4414105e-01
  -3.2960074e-02
  -1.3650440e-01
  -1.0771132e-01
  -9.0161257e-02
   1.3346032e-01
  -7.8884544e-02
  -4.9233529e-02
   9.1670717e-02
  -1.3734347e-01
  -9.4588060e-02
  -9.6812554e-02
   6.3892627e-02
   8.0575123e-02
  -5.3838419e-02
   6.8496590e-02
  -7.9153545e-02
   1.5710101e-01
   1.7092401e-01
  -2.8230290e-02
  -2.0423188e-02
  -2.9759917e-02
  -6.3527672e-03
  -1.3497353e-02
  -3.0166015e-02
  -2.7504335e-02
  -5.6792515e-03
  -9.3108785e-03
  -5.6312207e-02
  -1.0424572e-01
   1.6836743e-01
  -9.3157475e-02
   5.2260575e-02
  -8.4642262e-02
  -1.0821696e-01
   1.0156940e-01
   1.8451407e-01
  -6.0136840e-02
  -5.1639120e-02
  -6.9693992e-02
  -7.0532762e-02
   1.2913624e-01
  -4.6757322e-02
  -5.2054488e-02
   1.3390529e-01
  -4.8436692e-02
   1.2401807e-01
  -4.7945224e-02
   1.1139163e-04
   1.4362385e-04
  -1.3202231e-04
   1.4630806e-04
   4.6846530e-05
  -1.4244442e-04
  -7.8397166e-05
   1.6592996e-05
   1.6192754e-04
   1.6454018e-04
  -1.2118261e-04
   1.6655911e-04
   1.6180725e-04
  -5.1760654e-06
   1.0627968e-04
  -1.2674885e-04
  -2.7691397e-05
   1.4714323e-04
   1.0342231e-04
   1.6263031e-04
   5.5122037e-05
  -1.6432775e-04
   1.2356898e-04
   1.5360527e-04
   6.3260573e-05
   9.1223175e-05
   8.6053017e-05
  -3.8144597e-05
   5.5029020e-05
  -1.1637844e-04
   7.2926860e-05
  -1.6570060e-04
  -7.8954696e-05
  -1.6062569e-04
  -1.4258904e-04
   1.1448295e-04
   6.8956610e-05
  -6.4734840e-05
   1.5934921e-04
  -1.6477569e-04
  -2.1680497e-05
  -4.1920572e-05
   9.3975604e-05
   1.0448149e-04
  -1.1082665e-04
  -3.6227355e-06
  -1.9258932e-05
   5.1785251e-05
   7.4101478e-05
   9.0142454e-05
  -7.9272497e-05
   6.3603013e-05
   5.4894565e-05
  -1.1941341e-04
  -1.3484994e-04
  -5.7901877e-07
   1.6271934e-04
  -5.6493030e-05
   3.0179216e-05
  -9.7752538e-05
   8.8932131e-05
  -8.6680336e-05
   2.1084073e-06
   7.0460160e-05
   1.3835422e-04
   1.6255917e-04
   1.6711214e-05
  -1.2790335e-04
  -1.2412702e-04
  -8.5826243e-05
   1.2059166e-04
  -8.6968063e-05
   1.1123631e-04
  -9.0775413e-05
   1.5193129e-04
  -5.3095951e-05
  -1.0738547e-04
  -8.8100060e-05
   4.1072237e-05
  -9.4540032e-06
  -5.2502848e-05
   1.1709173e-04
   3.0177920e-05
   1.7598910e-05
   1.4765931e-04
  -7.5799002e-05
   9.1032086e-05
   8.9803530e-05
  -4.2314363e-05
   2.4004432e-05
  -1.5011988e-04
  -1.5787253e-04
   1.0900323e-05
   9.8806969e-05
   1.5361144e-04
  -1.3098903e-04
   2.4359082e-05
  -1.0833714e-05
  -1.7275479e-04
  -5.7647948e-05
  -1.1956540e-04
   1.0415751e-04
  -6.6817547e-05
   1.0098867e-05
  -1.1833852e-04
   3.6094948e-05
  -8.3892687e-05
   5.4533939e-05
   6.6969578e-05
   8.7829459e-05
  -1.7505044e-05
  -1.4730006e-04
  -9.5924455e-05
   1.4629443e-04
  -1.2303548e-04
   1.1531793e-04
   1.3570718e-05
   1.7559929e-04
  -1.4929832e-04
  -2.0288149e-05
  -1.3921923e-04
   1.6348176e-04
  -1.7532714e-04
   9.7300352e-05
   1.1230462e-04
   1.3049385e-04
  -1.4708257e-04
  -3.5470398e-05
  -8.4990197e-05
   1.0620465e-04
  -2.4275026e-05
   1.4534243e-04
  -1.1260538e-04
  -8.3598344e-05
  -1.2545605e-04
  -1.2880796e-04
   1.3070533e-04
   2.8210219e-05
   1.7647256e-05
  -1.2566282e-04
   1.2494996e-04
   4.3199546e-05
  -5.2753124e-05
   4.6894719e-06
  -3.4753544e-05
  -1.5008010e-04
  -9.2052698e-05
  -1.3332050e-04
  -1.1187600e-04
  -9.2039824e-05
  -2.9282055e-05
  -1.5939292e-04
   1.4253520e-04
   1.5742562e-04
  -3.2335147e-06
  -3.8038642e-06
  -5.7436732e-05
   1.4159294e-04
  -4.6278101e-05
  -1.3760884e-04
   9.9190931e-05
  -3.9025251e-05
  -9.1424417e-05
  -3.4008826e-05
  -1.4282875e-04
  -1.3025742e-04
   1.5645704e-04
   1.6144184e-04
   2.6618931e-05
  -1.5580929e-04
  -9.3870591e-05
  -5.1972277e-05
   1.1368172e-04
  -1.7151554e-04
  -1.6173973e-04
  -1.1715591e-04
   5.2777141e-05
   8.2014593e-05
   5.2292423e-05
  -1.7369803e-05
   1.6638078e-05
  -7.2089134e-05
   8.6605275e-05
  -1.1008961e-04
   6.6106307e-05
  -1.1201638e-04
  -4.6547865e-05
   4.4460767e-05
   9.9182213e-05
  -1.4825412e-04
   1.5197459e-04
   9.7584284e-05
  -4.6748996e-06
  -2.2701871e-05
  -1.8835078e-05
  -6.8539641e-05
   3.0115084e-06
   3.8124303e-06
   1.1241947e-04
   1.0435107e-04
   5.1079194e-05
  -4.2964352e-05
   1.1027914e-04
   1.1618115e-05
  -5.2832858e-05
   1.5537789e-04
   1.3305921e-04
   1.7752070e-05
   4.3348183e-05
   3.0808141e-05
  -1.0344014e-04
  -7.0345820e-05
  -1.0291236e-05
  -9.5389592e-05
   1.2186283e-04
  -1.0803351e-04
  -9.7005792e-05
  -1.1654785e-04
  -9.6389055e-05
  -2.2758467e-05
  -6.6857455e-05
   1.4984875e-04
  -2.4702026e-05
  -1.1155444e-04
   1.4330142e-04
   1.6979960e-04
  -2.1636038e-05
  -1.3763840e-04
  -8.5629299e-05
  -3.2307214e-05
   3.3587013e-05
  -8.4161513e-05
   3.6399738e-05
   7.4756594e-05
  -9.8483486e-05
  -1.3540917e-04
  -7.1963464e-05
  -6.4140647e-05
  -2.6840015e-05
   2.7813196e-06
  -1.4670034e-04
  -8.4065779e-05
   1.0653952e-04
  -1.6662528e-04
   1.5178636e-04
   8.1522084e-05
  -4.0316794e-06
   2.7792744e-05
  -9.2984457e-05
  -1.4564828e-05
   1.6390310e-04
   1.6566168e-05
   7.4807039e-06
  -9.4998060e-05
  -3.9294737e-06
   4.3909170e-05
   6.3402284e-05
  -3.6980791e-05
  -4.6918770e-05
   1.7271376e-04
  -1.6361025e-04
   1.3632432e-04
   1.4627655e-04
   1.0482975e-04
  -1.4202965e-04
  -8.4282051e-05
  -5.8272927e-05
   6.3611958e-05
  -1.2863646e-04
   7.8300088e-05
  -1.3918062e-04
   5.4420061e-05
  -2.0620460e-06
   9.8766088e-05
   7.6109084e-05
   1.4289071e-04
   1.3836104e-04
  -5.8695450e-05
   7.0343046e-05
  -1.0695559e-04
  -1.6615785e-04
   8.6386350e-05
   7.9407339e-09
  -7.1062509e-06
   1.4324524e-04
   3.8885619e-05
   4.1646218e-05
   1.2721910e-04
   1.0812331e-04
   2.7154406e-05
  -1.1222474e-04
  -9.2047085e-05
   1.3679998e-04
  -1.6681857e-04
  -3.5742490e-06
  -1.1753211e-04
   1.6942169e-04
   7.5279954e-05
   1.6692415e-07
  -1.0232827e-05
  -1.5586616e-04
   6.4406171e-05
  -1.6194950e-04
  -1.5168032e-04
   7.6626305e-06
  -1.4273124e-04
   1.1260381e-04
   1.1239093e-04
   7.8729090e-05
  -1.2392477e-04
   5.6489837e-05
   6.5813954e-06
   1.6740211e-04
   5.2733259e-05
   1.0629741e-04
  -1.6352594e-05
  -2.3928993e-05
   1.1513984e-04
  -1.4742449e-04
  -1.2983351e-04
  -1.1559910e-04
  -3.8600896e-05
   1.1728679e-04
   1.0737118e-04
  -1.5556450e-04
  -3.5656171e-05
   9.5122890e-06
  -2.9447555e-05
   5.5518158e-05
   4.5294212e-05
  -7.3624052e-05
  -2.4191022e-05
  -1.7148592e-04
   1.7132695e-04
  -1.1780065e-04
  -1.3937370e-04
  -4.5158620e-05
  -1.0684637e-04
  -3.6499027e-06
  -5.6808850e-05
   1.5984769e-04
   1.4877009e-04
  -1.5832313e-04
   8.4186233e-05
  -8.1716646e-05
  -2.7311153e-05
   1.6943173e-05
   1.5669998e-04
  -2.9113216e-05
   1.7096903e-04
  -7.0271983e-05
   7.1175828e-05
   5.8873091e-05
   1.3848214e-05
   7.0116418e-05
   5.8940007e-05
  -1.1392009e-04
  -1.3165861e-04
   1.7664187e-04
  -1.1640167e-04
  -1.6542879e-04
   2.1660730e-05
   1.3515580e-04
   5.9877010e-05
  -1.0956641e-04
  -4.6394983e-05
  -1.3900454e-05
   1.7046838e-04
  -1.2161021e-04
   1.2583186e-04
   5.1237193e-05
  -4.3791558e-05
  -1.0939283e-04
  -2.5393755e-05
  -6.3630164e-06
  -1.3427871e-04
   3.1679805e-05
  -9.6911681e-05
  -4.0837295e-05
   2.9371760e-05
  -8.7844425e-05
  -7.4170320e-05
   4.1442527e-05
  -8.3075230e-05
   1.1480802e-04
   1.7083132e-04
   8.1493037e-05
  -5.5257345e-05
   2.9755054e-05
  -1.3882416e-04
   1.4380655e-04
   1.3437263e-04
   1.1246649e-04
  -8.4686664e-05
   3.3395951e-05
  -1.6899936e-04
  -2.6453320e-05
  -6.6285284e-05
  -1.1981229e-04
  -1.1369579e-04
  -2.7293430e-05
  -1.4361632e-04
   3.4870945e-05
  -1.0290915e-05
   6.9353261e-05
   7.0747246e-05
   4.9030842e-05
  -1.6507379e-04
  -1.5261448e-04
  -6.3849913e-05
   1.0923940e-05
   5.4663695e-05
  -3.2696772e-05
   1.1325246e-04
   7.7284807e-05
   1.6587126e-04
   1.1090157e-05
  -6.1887010e-05
  -1.3958151e-04
   3.9272119e-05
   9.8677787e-05
  -2.7092668e-05
  -1.4482184e-04
  -8.2653842e-05
  -1.2258291e-04
  -7.7509822e-05
  -2.1205948e-05
   9.6067581e-06
  -1.5068994e-05
   1.3285703e-04
   6.3892675e-06
   1.5701344e-04
   4.8740028e-05
   1.6199377e-04
  -9.1772777e-05
   6.2335795e-05
  -7.4657367e-05
   6.0808871e-05
   6.9066994e-05
  -1.5290235e-04
  -8.6788272e-05
  -9.7671808e-05
   5.9401826e-05
   1.2189233e-04
  -5.5050150e-05
   9.9285639e-05
   6.2056102e-05
  -1.7459057e-04
   3.6161681e-05
  -4.0075603e-05
   1.4723374e-04
  -1.7655995e-04
  -1.3290546e-05
  -2.6775500e-05
  -1.3833054e-05
   9.5618902e-05
  -6.2833387e-05
   1.0077912e-04
  -1.0137697e-05
  -1.6430968e-04
  -1.1471929e-04
   7.8487863e-05
  -9.3842271e-06
  -1.2291402e-04
  -5.6231514e-05
   3.8008769e-05
  -1.0910205e-04
   8.4387532e-05
  -9.1014450e-05
   1.4774096e-04
  -8.1737118e-05
   9.3969668e-05
  -1.1019333e-04
  -7.5211770e-05
  -1.4471913e-04
   2.6973144e-05
   6.4898614e-05
   1.6490920e-05
  -2.6287140e-05
   5.1123312e-05
   5.2247001e-05
   6.3360241e-05
   4.8059628e-05
   1.5756257e-04
  -1.0301803e-04
   7.4072056e-05
  -9.3357151e-05
  -1.3470887e-04
   3.7978588e-05
  -1.7647999e-05
  -1.4608480e-05
   5.7317867e-05
   9.5663422e-05
  -5.3013042e-05
   5.7340818e-05
  -2.9674384e-05
   1.2102059e-04
   1.1783081e-04
  -8.6203984e-05
   4.0157692e-05
   2.9110833e-05
   1.4419065e-05
   1.3093497e-04
  -8.3252864e-05
  -6.4389897e-05
  -1.3477319e-04
   1.5567091e-04
   5.1515859e-05
  -7.2686773e-06
   4.9309107e-05
   1.5826583e-05
   5.2138644e-05
   1.5532755e-05
   7.8236069e-05
   7.9618693e-06
   1.7473920e-04
  -9.9570101e-05
  -1.3952167e-04
  -1.3814161e-04
  -1.5446016e-04
  -3.3772450e-05
  -1.8272618e-05
  -4.7492311e-05
   9.3263436e-05
   4.5266967e-05
   9.6263296e-05
   1.5320190e-04
   1.6731939e-04
  -1.0900185e-04
  -1.2781495e-04
   6.9465467e-05
  -1.4376119e-04
   8.9915000e-06
   1.0739872e-05
   1.2781991e-04
  -5.3609308e-06
  -3.7709491e-05
   6.0675429e-05
   8.5389557e-05
   7.0972640e-06
  -5.3899770e-05
  -1.2387812e-04
   3.0470970e-05
  -8.4185025e-05
  -1.6123350e-04
   9.0229729e-05
  -9.1037187e-05
  -2.0385820e-05
   6.6467551e-05
  -4.9824021e-05
   8.3648953e-05
  -3.7266678e-05
   6.4917240e-05
   7.2219466e-05
  -2.0420116e-05
  -1.7003815e-04
  -5.9865265e-05
  -2.6789495e-05
  -8.1309268e-05
  -1.0722317e-04
   1.1386829e-04
  -2.4803245e-05
   1.3724560e-04
  -3.8514114e-05
   9.5248920e-05
  -3.6529063e-05
   1.0919384e-04
   9.0280636e-05
  -4.3393971e-05
  -1.0051076e-04
   1.0278519e-04
   1.5902424e-04
  -6.1030576e-05
   6.0616403e-05
  -2.1715670e-05
   1.1803743e-04
   9.5156849e-05
  -1.1777052e-04
   1.2811745e-04
   1.7338275e-04
   5.1049617e-06
   1.3601039e-04
   3.1155475e-05
  -1.2219512e-04
  -1.0622896e-04
  -3.2931912e-05
   8.8025583e-05
   1.1523541e-04
   1.0262798e-04
  -6.4230566e-05
   1.2056477e-05
  -1.4513068e-04
  -1.3743081e-04
  -1.2872869e-04
   6.3231250e-05
  -1.7070203e-06
  -1.0982225e-04
  -1.7676118e-06
  -1.2472368e-04
  -1.5751009e-04
   1.2412938e-04
   2.1434118e-05
   1.5205348e-04
   6.9607346e-05
   2.9302595e-05
   1.1163002e-04
   1.3414617e-04
   1.7304279e-04
  -1.7678246e-04
   1.2934140e-04
   3.9841179e-05
   1.7341038e-04
   9.7969370e-06
  -7.2473845e-06
   1.0665737e-04
  -9.6325828e-05
  -6.7449647e-07
   1.4187560e-04
   2.6425196e-05
   1.2217054e-04
   8.4463080e-05
   3.0433796e-05
  -8.9639439e-05
   5.8900474e-05
  -1.4741988e-04
   4.4581539e-05
   5.6963864e-05
   8.1317154e-05
   1.3830073e-04
   1.7070385e-04
   9.5218728e-05
   2.8826738e-05
   1.5159485e-04
   2.8346759e-05
  -1.7095650e-04
  -1.3419095e-04
   1.2837591e-04
  -5.5580096e-06
   1.2205639e-04
  -1.0285162e-04
   1.8507720e-05
   4.5970237e-05
  -1.6564462e-04
   4.0601059e-05
  -4.8697358e-05
  -1.5943605e-04
  -3.6915427e-06
  -1.0883124e-04
  -1.3340374e-04
  -1.0423583e-04
  -1.2511064e-04
  -1.1004815e-04
  -1.6187118e-04
   4.7851234e-05
  -7.7204889e-05
   1.3660704e-05
   6.9074972e-05
  -3.1287350e-07
   1.2671236e-05
  -1.9401580e-05
  -1.3310342e-04
  -3.4128884e-06
   1.2493830e-04
   1.3234588e-04
  -8.1300806e-05
  -1.0318564e-04
   2.2998525e-05
   4.9661224e-05
  -2.9366333e-05
  -1.0406547e-04
   1.5853907e-04
  -1.4791950e-04
  -1.3955312e-04
  -1.2669407e-04
  -1.1805122e-04
   4.2811461e-05
   2.6088443e-05
  -1.5853518e-04
   1.5261713e-04
   8.0931303e-05
   8.4180414e-05
  -1.5452630e-04
   1.2757242e-04
   1.5375104e-04
   1.7144537e-04
   1.2704090e-04
   1.0106923e-04
   4.7347326e-06
  -1.1410768e-04
  -3.5892696e-05
  -1.2956443e-04
  -1.6603447e-04
   1.5542749e-04
  -7.0324678e-05
  -7.2367671e-05
  -5.9129647e-05
  -1.1655711e-05
   5.2452558e-05
  -1.6803822e-04
   1.2111879e-04
   2.0893666e-05
   1.2532826e-04
  -5.3840831e-05
  -1.9103042e-05
  -1.5777011e-04
  -1.1428285e-04
   5.7623422e-05
  -5.9875489e-05
   1.4103807e-04
  -1.3514812e-04
   1.7286805e-04
   1.4151052e-05
   7.3235254e-05
   1.7678742e-04
  -7.5087478e-05
  -3.0253439e-05
  -1.2444365e-05
   9.3423569e-05
   1.1262345e-04
  -1.4149547e-04
  -1.1392558e-04
  -4.9680075e-05
  -1.5689759e-04
   7.7460993e-06
  -5.8098744e-05
  -1.1479198e-04
  -1.0301387e-04
   1.4339790e-04
   6.2077023e-05
  -1.1160198e-05
   1.4586798e-04
  -1.4015404e-04
   8.6907276e-05
   8.3623251e-05
   2.1894905e-05
  -1.1177467e-04
   3.4406470e-05
  -7.0809241e-05
  -1.2949659e-04
  -1.0172029e-04
   1.3978356e-04
  -1.5167772e-04
  -9.1142942e-05
  -1.5794180e-04
  -2.0626586e-05
  -1.7226596e-04
   1.4057980e-04
  -1.0736319e-04
  -1.4392028e-04
  -6.8179538e-05
  -1.5552716e-05
  -1.4098302e-04
   1.7533561e-04
  -5.9428172e-05
  -7.1725994e-05
  -1.5500739e-04
  -7.1408459e-05
  -1.6056203e-04
   1.9212080e-06
   9.2527692e-05
   4.6390221e-05
  -1.4515157e-04
  -1.4834733e-04
   9.8125046e-05
   1.4339124e-04
   1.1953066e-05
  -1.3833389e-04
   1.1531506e-04
  -5.7302835e-05
  -7.2920085e-05
   8.7178869e-05
  -1.7330886e-04
  -1.5982015e-04
   5.9431342e-05
   3.6620910e-05
   9.2385684e-06
   8.1302144e-05
   7.3354200e-05
   9.9589102e-05
  -7.5042305e-05
   6.8143751e-05
   2.0057421e-05
  -3.6624882e-05
  -1.5516828e-04
   9.9163842e-05
  -5.7484706e-05
   3.8177487e-05
   8.5388179e-05
  -1.3987031e-04
  -1.3170321e-04
   1.7533963e-05
  -5.2278248e-06
   1.3820289e-04
   1.0581242e-04
   8.2941441e-05
  -1.5879921e-04
  -1.5117071e-04
  -1.4563441e-04
   1.0559672e-04
   1.5679595e-04
   6.5023316e-05
  -1.3021861e-04
   7.8829943e-05
  -1.3790942e-04
  -1.3538255e-04
   4.9804956e-05
  -6.0588589e-05
   5.4439412e-05
   8.8176269e-05
   2.9442317e-05
   8.4955770e-05
  -9.3853956e-05
   8.3159627e-05
   1.6656115e-04
   1.2986936e-04
  -1.4644596e-04
  -4.7272716e-05
  -4.6295082e-05
   6.5487997e-05
   3.4664943e-05
   1.0241594e-04
  -4.6842224e-05
  -1.0404694e-04
  -1.4629305e-04
   9.6246849e-05
  -1.0417200e-04
  -3.9544547e-05
   1.8326219e-05
  -9.5932849e-05
   5.0237711e-05
  -5.4929347e-06
  -1.2322395e-04
   9.9785506e-05
  -1.4135928e-04
  -7.2887070e-05
  -9.2952801e-05
   1.0926763e-05
  -1.4458277e-04
  -3.3512158e-05
  -1.3985862e-04
  -1.3722616e-04
   1.0066890e-04
  -7.3770497e-05
   3.6644076e-05
   1.6437530e-04
  -2.3895903e-05
   6.8929559e-05
   9.1350289e-05
  -2.3840218e-05
   5.5036152e-05
  -1.3812123e-04
   1.5352266e-04
  -1.1061847e-04
  -8.2757422e-05
   1.0541246e-04
  -4.3874540e-06
   9.5193662e-05
  -3.6806821e-05
  -8.0364839e-05
  -1.6378872e-04
   6.1335083e-05
  -2.4929582e-05
  -1.7081159e-05
   3.8882264e-05
  -1.5594246e-04
  -6.5190723e-05
   9.6525825e-05
   6.9524451e-05
  -1.3260794e-04
  -1.3090223e-04
  -1.4428065e-04
  -1.7419948e-04
  -2.7214257e-05
   5.5062745e-05
   7.8900017e-05
   1.1046052e-05
  -1.3845291e-04
   4.6636692e-05
  -1.3219466e-04
  -1.2943275e-04
  -1.4207148e-04
  -1.2669898e-04
  -1.1741738e-04
  -1.0750805e-04
  -6.4600241e-05
  -6.4972147e-05
  -9.9964145e-05
  -8.8114929e-05
   1.3906887e-04
   7.1927751e-05
   1.9727592e-05
  -1.1168987e-04
  -1.0192228e-04
  -1.4959163e-04
   1.4645832e-04
   7.3163688e-05
   2.0453521e-05
  -6.6033954e-05
  -1.1814214e-04
   4.3356031e-05
   1.7269703e-04
  -1.1664554e-04
  -8.5725727e-05
  -3.6526302e-05
  -1.5077803e-04
   6.5157986e-05
  -3.4548156e-05
   1.7089213e-04
  -3.4620482e-05
   4.2709989e-05
  -1.2233052e-04
  -4.1996049e-05
  -1.1993645e-04
   9.1354946e-05
   1.3134910e-04
  -5.2815288e-05
   6.5667525e-05
  -7.2857941e-05
   1.0840773e-05
   1.1765617e-04
   3.4505162e-05
  -5.8289035e-05
  -7.1061231e-05
  -1.6779145e-05
  -2.7378387e-05
  -4.9690196e-05
   2.0641188e-05
   8.5845221e-05
  -2.6780546e-05
  -2.5003438e-05
  -1.3277055e-04
  -1.6831930e-04
  -7.4260715e-05
  -6.4585797e-05
   5.4396271e-05
   1.6172548e-04
   1.5422028e-04
  -1.4905488e-05
  -9.1853700e-05
   9.3402639e-05
   9.1784959e-05
   8.5173700e-05
   8.6249760e-05
  -1.3947844e-04
   6.4260536e-05
  -1.3003356e-05
  -1.0187543e-04
  -1.4209815e-04
   1.1452423e-04
  -1.1502533e-04
  -1.1907428e-04
   5.8748635e-05
   1.3958808e-04
   5.8605245e-06
   7.1743380e-05
  -1.2260639e-04
   1.6049419e-04
   1.4470295e-05
   6.3614063e-05
  -1.6402643e-04
   1.0943797e-04
   8.7994845e-05
  -1.3442899e-04
   8.8643528e-06
  -6.1643522e-05
   1.6440069e-05
  -3.5789610e-05
  -3.0051397e-05
  -1.1299798e-04
  -8.6577120e-05
  -1.6969903e-04
   1.4995350e-04
   5.4399724e-05
   1.5311695e-04
  -1.1909465e-04
   1.4904093e-04
   1.0428965e-04
   2.7392492e-05
  -2.1223483e-05
  -8.5788909e-05
   8.9172571e-05
  -9.6033285e-05
  -1.5424931e-04
   9.4617190e-05
   6.0594394e-05
   7.6171177e-05
   5.0280256e-05
  -2.8651618e-05
  -3.8663089e-05
   1.1189295e-04
  -6.4618614e-05
   1.1132654e-04
   1.0231315e-04
   1.2467841e-04
   1.9949945e-06
   4.8015273e-05
   1.5958718e-04
  -1.9833030e-05
  -1.5572461e-04
   1.2980551e-04
   4.6432245e-05
  -5.1294463e-05
   1.7590670e-04
  -9.7625277e-05
   5.3957725e-05
   3.7159831e-05
  -3.9907754e-05
  -1.2664238e-04
  -1.6807121e-04
  -2.7921111e-05
  -1.1180787e-04
   7.9909701e-05
  -4.5883143e-05
   1.2088997e-04
   8.2902015e-05
   2.5138521e-05
  -1.1437221e-04
   1.6188408e-04
  -8.3060674e-05
   1.5027391e-04
  -9.7767239e-05
  -4.4750156e-05
  -1.4599794e-04
   4.9592108e-05
  -1.1304077e-04
  -1.6102220e-04
   7.8988838e-05
  -5.3997111e-05
   5.6847867e-05
  -4.1102932e-05
   4.5072346e-05
  -1.6930473e-04
   1.4531497e-04
   1.0637814e-04
   8.7013955e-05
   1.1082149e-04
  -4.1301943e-05
   4.1509190e-05
   2.6720250e-05
   1.0636341e-05
  -7.9610618e-05
  -8.8968933e-05
  -1.7116717e-05
  -9.6371879e-05
   1.0775527e-04
   1.7204916e-04
  -1.6635216e-04
   1.2622795e-05
  -1.4614770e-04
   1.0692064e-04
   1.7312536e-04
  -1.5327275e-04
   1.5551833e-04
  -1.7053369e-04
   6.5066864e-05
   1.0042419e-04
   1.2082470e-05
   1.3639208e-04
   1.4122168e-04
   4.4573696e-05
  -1.2817073e-04
  -9.9879808e-05
  -1.1250130e-04
  -1.6216585e-04
  -1.3911699e-04
   4.1213390e-05
   1.5561129e-04
  -5.1513167e-05
  -3.1631466e-05
   1.7142806e-04
   1.5770594e-04
   6.2520681e-05
   1.7282711e-04
   9.4440887e-05
  -5.7797797e-05
   5.7472575e-05
  -9.0548782e-05
  -7.2377080e-05
   6.3771377e-05
   9.8559595e-06
  -3.1290123e-05
   3.6327227e-05
   8.8667740e-05
   2.9565289e-05
   1.8331168e-05
   2.9578542e-05
   4.1834798e-06
  -1.4773492e-04
   7.7713489e-05
   1.7560686e-04
  -5.1485357e-05
   1.6679485e-04
  -5.4347111e-05
   1.3681129e-04
  -1.6035059e-05
  -3.0641086e-05
  -9.9904415e-05
  -1.3249383e-04
  -6.7631756e-05
   8.0026204e-05
   1.0011824e-04
   6.8588161e-05
  -1.7349799e-04
   1.2147511e-04
   1.4947795e-04
   9.5900100e-05
  -1.6186855e-04
  -4.3114153e-05
   7.2322883e-05
   8.1232631e-05
  -9.7587912e-05
  -8.1739544e-05
   6.1241733e-05
  -7.9662922e-06
   4.3787531e-05
  -9.3281283e-05
  -1.1427711e-04
   1.1667223e-04
   9.4472840e-05
   1.5377694e-04
  -1.3878172e-04
  -1.1247071e-04
  -1.4189409e-04
  -3.6229457e-06
  -1.0857112e-04
   1.4011976e-04
  -1.4189608e-04
  -1.6133562e-04
   2.0278744e-05
   9.6445459e-05
  -6.6560939e-05
  -1.1361924e-04
  -5.6999173e-05
  -1.0258952e-04
   3.5933290e-06
   1.4382643e-04
   4.5630655e-05
  -1.4103098e-04
  -3.8630290e-05
  -1.5763663e-04
   4.5406750e-07
  -2.4166246e-05
   1.7610387e-04
   1.1028697e-04
  -5.0783719e-06
   1.3960875e-04
  -1.2828484e-04
  -3.8931077e-05
   1.5125620e-04
   1.4776555e-04
   7.5591253e-05
   4.1883706e-05
  -5.5465853e-05
   1.5432520e-04
  -1.3280549e-04
   8.1612160e-05
   5.1843446e-05
   1.1791405e-04
  -3.6001449e-05
   8.8420748e-05
   1.1864617e-04
  -6.2837426e-05
   1.8497200e-05
   1.6958043e-04
   1.7452001e-05
  -6.0018969e-05
   4.2285129e-05
  -4.9325553e-05
   9.0787628e-05
  -3.0473513e-05
  -2.7093332e-06
   6.8926387e-05
   1.6731693e-04
  -6.0963496e-05
   1.1956027e-04
   8.4615957e-05
   1.6074810e-04
  -1.6566882e-04
  -5.0659032e-05
   5.7568836e-05
  -7.7334180e-05
  -9.5426788e-05
   7.4725720e-05
   4.4090678e-05
   3.2069546e-05
   5.6784563e-05
  -1.6013610e-04
  -5.3520303e-05
  -1.7222257e-05
  -9.1702712e-05
   7.6111892e-05
   1.2606527e-04
  -7.7332008e-05
   8.1776906e-05
  -1.2820828e-04
   1.1917788e-04
  -1.2791139e-04
   3.1220362e-05
  -4.7371752e-05
   1.0857285e-04
   1.3381513e-06
  -3.6829246e-06
   1.3345063e-04
  -5.1978208e-05
  -1.7893680e-05
   1.6405945e-04
  -1.6199669e-04
   1.6739637e-04
  -1.1000048e-04
   5.9149673e-05
   3.0593979e-05
   6.1978360e-05
  -4.9189119e-05
   4.2570709e-05
   1.1012709e-04
  -1.7015146e-04
  -1.4728160e-04
   1.6804878e-04
   5.3567851e-05
  -9.5124262e-05
  -3.4157833e-05
  -1.3378005e-04
  -8.1957536e-05
  -8.5706643e-05
  -5.9579513e-05
  -1.2308645e-04
  -5.3795363e-05
  -1.3390820e-04
   1.3596510e-04
  -1.4359896e-04
   1.5220630e-04
  -3.5740337e-05
  -1.6019033e-04
  -5.5789487e-05
   8.3516611e-05
   1.0429824e-04
   1.5893756e-05
   6.5910945e-05
   1.3932027e-04
  -1.5757463e-04
  -6.9491050e-05
  -1.6061855e-04
  -1.0778134e-04
   7.7924317e-05
   7.8486178e-05
   1.3371620e-04
   2.9175886e-05
  -1.5194971e-04
   1.4962397e-04
   1.0631211e-04
  -7.5760835e-05
   1.5453933e-05
   1.7157913e-04
   7.6335952e-05
   1.1997310e-04
  -2.3621403e-05
  -1.0396932e-05
   2.1488583e-05
  -8.1726515e-05
   8.8136276e-05
   1.3760179e-06
   5.1961035e-05
  -6.8045509e-05
  -1.2786789e-04
  -8.6455863e-06
  -4.8680433e-05
   1.0197334e-04
   9.9206417e-05
   5.9642320e-05
  -1.2971570e-04
  -1.6933797e-04
   2.1179702e-05
  -7.0497061e-05
   1.5552234e-04
   1.7020848e-04
  -7.5522448e-05
   1.0647074e-04
   1.4019755e-04
   3.4518040e-05
   1.3591685e-04
   1.5705199e-04
   1.7398753e-05
   8.0834022e-05
   2.7167425e-05
  -1.6781549e-04
  -1.8924542e-05
   5.1781339e-05
   7.5044607e-06
  -4.5192980e-05
   1.5471713e-04
   1.1663310e-04
   1.2355346e-04
  -4.5114555e-05
   3.2981255e-05
   1.3185928e-04
   1.5343126e-04
   5.9625352e-05
  -1.0378199e-04
   5.4453063e-05
  -1.5146581e-04
  -3.3012581e-05
   5.9082862e-05
   1.5351056e-04
   1.1005601e-04
  -5.4689027e-06
   9.0872454e-05
  -2.9359784e-05
   1.6698143e-04
   1.7271118e-04
   1.2888445e-04
  -3.9327887e-05
  -1.6018437e-05
  -8.9656190e-05
   1.0066720e-04
   1.3549951e-04
   1.4642692e-04
   2.0629057e-05
   3.4992852e-05
  -1.2427471e-04
   1.4147247e-04
  -1.7557433e-05
  -1.0417277e-04
   1.4145035e-04
   9.2938134e-05
   1.3537518e-04
  -7.6113580e-05
   6.1310687e-05
   5.8144358e-05
  -1.3349886e-04
  -3.2803226e-05
  -7.9533745e-05
   7.6686939e-05
  -7.6667784e-05
   1.4022852e-04
   1.1558760e-04
  -3.8923433e-05
  -7.4222125e-07
   6.8948317e-05
   1.1834479e-04
   3.8801751e-05
   2.6452074e-05
  -6.1569712e-05
  -1.5422846e-05
   7.5669675e-05
   1.3605428e-04
   7.8168485e-05
  -1.7037964e-04
   6.1859456e-05
  -2.1763861e-05
  -2.2007596e-05
  -1.3554396e-04
   1.1137677e-04
  -6.1989738e-05
  -8.9818676e-05
  -5.5669249e-05
  -4.3996865e-05
   1.6477003e-05
   2.1915691e-05
  -3.6872128e-05
  -3.6055016e-05
   5.4389921e-06
   5.5755525e-05
   1.5959453e-04
   7.8696854e-05
  -3.5365245e-05
   1.1746078e-04
  -1.2942035e-04
  -1.5556606e-04
  -1.4714939e-04
  -1.1895805e-04
  -6.2214670e-05
  -7.0175773e-05
  -1.7283304e-04
   1.4123797e-05
  -1.4321164e-04
  -1.2511066e-04
   4.6415424e-05
   1.2717596e-04
   1.6784349e-04
   2.5072177e-05
   1.7585253e-04
   1.8950221e-05
   5.4712836e-06
  -5.9927492e-05
  -2.4774792e-05
  -2.9000512e-06
  -1.5182486e-04
   1.3723436e-04
  -1.5409128e-04
  -2.2586358e-05
   1.1560552e-04
  -3.7327835e-05
   4.0162698e-05
   1.1277801e-04
   1.3670198e-04
   1.5258536e-04
  -1.0944204e-04
  -8.5446118e-05
   1.4081847e-04
   3.3044002e-05
   6.3089742e-07
   4.0781813e-05
   1.1348085e-04
   5.9038124e-06
  -1.0847243e-04
  -6.6862028e-07
  -2.3978855e-05
   1.2757031e-04
   3.2435416e-05
  -6.9136516e-05
   7.6081752e-05
  -6.8887366e-05
   1.6371697e-05
   1.9201029e-05
  -6.1344363e-04
   2.3300814e-05
   8.1026639e-06
  -3.2434510e-05
   1.2366551e-04
   7.6084436e-05
  -5.6245843e-05
  -2.2607438e-05
  -7.2969123e-05
   2.9501471e-05
   6.1368661e-05
  -3.0481464e-05
   3.4856918e-05
   6.3630667e-05
   1.0268759e-04
   1.4576621e-04
  -1.0461402e-04
  -2.9882838e-05
  -1.2318888e-05
  -8.0822635e-05
  -2.1965511e-04
  -1.1388405e-04
   1.4810001e-04
  -3.5774634e-04
  -9.5038849e-05
  -1.5403028e-04
  -5.6849669e-04
  -6.4532207e-08
  -9.8248217e-05
   1.0230500e-05
  -1.2855863e-04
   4.7573860e-05
  -5.7023750e-05
  -1.3085914e-04
  -1.7943647e-04
  -1.2107080e-04
  -1.7398874e-04
  -2.0989993e-05
   5.2761514e-05
   4.5146774e-05
  -5.9993048e-05
   1.2775319e-04
  -1.5139935e-04
   1.1515002e-05
  -1.3926994e-04
   1.3396842e-05
  -1.2621748e-04
   1.9555632e-05
  -2.7470011e-04
  -7.9678284e-06
   1.8775818e-04
   1.1794772e-04
   1.6836890e-04
  -5.0651236e-05
  -7.7557950e-05
   2.2308763e-04
  -3.5297824e-06
   2.3722781e-05
   6.9428914e-05
  -1.4524432e-04
  -2.3458168e-04
  -2.7550875e-05
  -1.1824456e-04
   1.5467483e-04
   2.9399470e-05
   6.5152197e-05
   1.5665589e-04
   6.0954599e-05
  -5.6754138e-05
   3.5208987e-04
  -2.9668262e-06
  -5.6878422e-05
   5.8877311e-05
   9.5292403e-06
  -9.0885866e-05
   2.5539337e-05
   1.2966561e-04
  -2.4144793e-05
  -1.3873669e-04
  -1.0171638e-04
  -6.1192916e-05
  -5.6751747e-05
   1.2021276e-04
  -1.4680944e-04
  -4.1838666e-05
  -2.0180490e-05
  -1.2870368e-04
  -7.0336342e-05
  -2.4057740e-04
  -1.4563133e-04
  -8.2688235e-05
  -3.7082511e-05
   9.5270925e-05
  -2.3067649e-04
   5.6306654e-05
   2.1146951e-04
  -3.6213942e-04
   9.0059596e-05
  -8.7838570e-05
   5.1235825e-05
  -1.7878440e-04
  -1.5147601e-04
  -1.7859044e-04
  -1.6628110e-04
  -1.4297753e-04
  -1.5612850e-05
  -1.7286713e-04
  -1.3076721e-04
  -1.1430405e-06
   1.4000771e-04
   1.7058594e-04
  -9.8441161e-05
   2.2530101e-07
  -1.7014627e-04
  -5.1861043e-05
  -1.0809843e-04
  -1.3571114e-04
   1.3757165e-04
  -1.2074314e-04
  -1.6757482e-04
   1.6049853e-04
  -3.0501310e-05
   1.5820483e-04
   9.2940063e-05
  -1.6823438e-04
   1.8674068e-04
   7.1568035e-05
  -8.9655885e-06
   1.9102023e-05
  -1.2279994e-04
   9.6472978e-05
  -1.2058347e-04
  -4.5303797e-05
   5.3986931e-06
   1.3154566e-04
  -3.4099874e-05
  -6.2873224e-05
   1.4843114e-04
   1.5396672e-04
   1.6066490e-04
   6.9263818e-05
  -6.5386791e-05
   1.2639771e-04
   1.8777057e-04
   1.2377608e-04
  -1.6602599e-04
   1.1671652e-05
   7.9399005e-05
  -1.0386626e-04
  -5.7806823e-05
  -1.0977580e-04
  -6.3183010e-05
   1.0760821e-04
  -1.2981927e-05
  -3.0754282e-04
   2.3311732e-05
  -1.1926098e-04
  -9.4925912e-05
  -1.1460107e-04
  -1.2208830e-04
   1.7596757e-04
   8.4465737e-05
   1.1201336e-04
   2.2026670e-05
  -1.1153181e-04
  -5.6181120e-05
  -1.6212874e-04
  -1.8279469e-04
  -7.9102842e-05
   6.3299206e-05
   5.6621022e-05
   2.5442572e-05
  -1.8924347e-05
  -8.1240720e-05
  -1.4862768e-05
   8.3205601e-05
   1.0434315e-04
   2.6601808e-05
   6.4198156e-05
   2.1390691e-04
  -1.1630444e-04
   3.2565504e-05
  -5.3889070e-05
  -1.3728759e-04
  -1.4614785e-04
  -7.9201182e-05
   9.1759754e-04
  -2.4188534e-02
   7.6266335e-03
  -3.8467493e-02
  -5.5507851e-02
   2.4374497e-02
   6.9833907e-01
  -7.7368260e-04
  -2.4134757e-03
  -2.4074311e-02
   6.2744205e-04
   1.7932705e-03
   2.7615325e-04
   1.0617288e-02
  -2.1733880e-03
   4.3263257e-03
  -7.0306147e-02
   1.5867550e-02
   1.3715897e-01
  -2.6551021e-03
  -8.5521001e-05
   6.2790788e-05
   4.2750771e-03
  -4.7153805e-03
  -6.7439978e-03
  -5.8194641e-03
  -1.3967746e-02
  -5.7824105e-04
   2.5919155e-03
  -1.1722542e-04
   3.6957937e-03
   5.0872041e-02
  -1.2257523e-02
  -2.9142473e-04
  -2.1803221e-03
  -6.1676854e-02
   7.0855522e-03
  -4.5924790e-03
  -7.5064709e-03
   4.7681189e-04
  -4.8241426e-03
  -1.4082153e-02
  -8.8971668e-04
  -1.4928990e-03
   4.8414295e-03
   1.0095803e-03
  -2.2778653e-04
  -5.7557451e-03
  -5.2138654e-03
   1.8059334e-04
   6.5979254e-04
  -1.5168067e-04
  -2.9506089e-03
  -1.1209529e-02
  -1.3930772e-05
   5.0293333e-03
   1.0135719e-03
  -3.1477774e-02
   1.8561701e-03
   2.8467878e-04
  -1.7363095e-03
  -3.7251924e-04
  -9.9894788e-02
  -2.5322484e-03
  -1.0549506e-03
  -2.1587030e-04
   1.4636329e-01
   4.7033341e-04
  -2.8631637e-01
   1.0678261e-03
  -1.2738823e-02
  -1.2090050e-05
  -4.8797796e-02
   1.8332139e-04
  -1.7933340e-03
  -1.5544737e-04
   4.5240616e-04
   1.3079632e-02
   1.2464939e-04
  -5.5194975e-04
   2.7848556e-04
  -2.9288702e-03
   6.9636894e-04
  -6.0509825e-04
   9.2657542e-03
  -5.9247781e-02
  -5.8624931e-02
  -8.0099326e-03
   1.3794471e-02
  -7.8613655e-04
   9.0378930e-06
   1.3512413e-02
   4.7035784e-04
  -1.7906710e-04
   3.1267889e-02
   1.3641343e-02
   2.1405906e-02
   2.7235976e-02
   2.9174277e-03
  -1.3743863e-02
   3.5984793e-03
   1.4008401e-02
  -1.4555409e-04
  -1.1362476e-03
  -3.6178666e-04
  -2.6341086e-03
  -1.2357792e-02
  -2.1442811e-02
   1.9971155e-02
  -3.3296938e-02
  -5.9162560e-03
   5.8890643e-04
  -1.1920218e-01
  -2.6327010e-02
  -6.5545843e-05
  -3.8308540e-04
  -2.4774648e-03
  -3.1417465e-03
  -2.7373843e-03
   9.1481033e-02
  -5.5463701e-02
  -2.1580796e-01
  -1.5321607e-01
   1.4016940e-03
  -8.4552786e-03
   2.6244226e-03
  -6.7498921e-03
   1.4039787e-02
  -3.1302805e-04
   4.0044673e-04
  -7.0365541e-04
   7.6419999e-05
  -5.2364526e-05
   6.2688394e-04
  -4.3303252e-05
  -1.0762472e-04
   7.5203767e-03
   3.3781786e-03
   1.2429895e-01
  -2.2733279e-02
   1.1351238e-01
  -1.2220585e-02
   2.0490863e-02
  -1.8164158e-03
   3.4758282e-02
  -1.2638384e-01
   7.0422091e-05
   4.5354725e-03
   5.4650898e-02
   8.2023429e-04
   4.2066627e-04
   2.0018689e-02
   5.7367874e-04
   1.3179842e-03
   1.2877935e-02
  -2.8338946e-04
   8.9670647e-04
  -1.5169242e-02
  -5.9968193e-04
   5.8361497e-04
   1.1642746e-04
   8.4682852e-04
   1.6334829e-01
  -8.1013083e-02
   1.9670965e-04
   5.1876142e-03
  -1.2831431e-01
   3.4199111e-06
  -1.0289429e-02
  -4.5205754e-02
  -4.0831342e-04
   5.3288486e-04
  -4.1261565e-04
   7.6052366e-04
   6.9511871e-02
  -4.3533602e-01
  -5.0046216e-03
  -2.7506326e-04
   1.3823741e-03
   4.4644592e-03
   1.2920584e-04
   4.4850766e-05
   8.7508504e-02
  -8.2092563e-02
   5.4989190e-02
   5.6898313e-02
   9.9938157e-03
   6.4840934e-03
  -1.7986147e-03
   5.6498916e-02
   2.2054074e-03
   3.5866806e-03
   7.0083315e-05
   3.5882100e-03
  -3.6924319e-03
  -1.3136060e-02
   3.7452025e-06
   1.3658547e-01
  -9.3523595e-04
   5.4738614e-05
  -8.6383125e-04
   2.5620794e-04
  -8.2426362e-04
   2.8978599e-05
   3.5377317e-03
  -3.1876156e-04
   2.0096994e-04
  -1.0116538e-03
   2.1334142e-03
  -1.1792227e-02
  -1.1957691e-05
  -3.8903218e-04
   2.0706213e-04
  -1.3160743e-04
  -7.3409237e-04
  -7.8344750e-04
  -1.6610543e-02
  -1.6202269e-04
   7.0179733e-04
   6.6654489e-05
  -9.2125429e-04
  -5.9813571e-04
   1.8382231e-05
  -1.9600278e-03
  -1.2927953e-04
   1.9224974e-04
   1.6186432e-02
  -6.8649445e-04
  -3.9539380e-04
   9.6296187e-03
   1.0966388e-02
   8.8786682e-05
   7.1790297e-04
  -1.1749881e-03
  -3.7871227e-03
  -9.8427335e-03
  -6.0035266e-06
   3.0852945e-03
  -1.9554785e-03
  -1.2837235e-04
   6.4829397e-04
   2.7357258e-04
  -2.1276016e-05
   1.1948057e-03
   5.8664852e-04
  -4.7505960e-04
  -4.3517371e-04
   3.7864891e-03
   5.6648732e-03
   5.8581722e-05
  -8.6218509e-05
   2.2723901e-03
  -5.4266402e-05
   5.8304893e-04
  -5.2218420e-04
  -3.3790611e-05
  -1.2132079e-03
  -1.6942581e-03
  -3.5227085e-04
  -3.7385472e-04
  -3.0785524e-03
   6.8009214e-04
  -2.2714295e-04
  -2.9798067e-04
   8.0797737e-04
   3.9938914e-04
  -1.2246381e-04
  -9.8151683e-04
   6.1137410e-03
   2.6716372e-03
   2.9079030e-04
  -1.6167784e-02
   2.0997147e-03
   3.9378710e-05
  -1.2757979e-04
  -5.3955218e-04
  -2.9972857e-04
  -2.8914500e-03
  -3.4959730e-04
   1.4772013e-03
  -2.0340094e-04
  -7.8568009e-06
  -2.9138202e-04
   1.9079326e-02
   1.0358093e-02
  -2.0668469e-03
   1.7350238e-03
   4.2037600e-03
   2.6165265e-03
  -3.1329734e-03
   1.1834287e-04
  -5.0137821e-04
   4.9723903e-03
   2.5484159e-04
  -3.0763930e-04
  -6.0883030e-05
  -5.5793738e-05
   4.1459679e-03
  -1.3251325e-02
  -1.7866848e-04
  -1.1962914e-04
  -3.4907992e-04
  -1.2798235e-03
  -2.1241576e-03
  -4.7564309e-05
   7.9651554e-03
   1.1092889e-02
   7.5852403e-03
   2.7772812e-03
   1.0331293e-03
  -1.0117878e-05
  -4.4388390e-04
   5.0298374e-03
   1.2367070e-03
  -4.2092662e-04
  -2.6654526e-04
   1.7628779e-05
  -3.6619227e-04
  -8.4037647e-04
   6.5771991e-04
   1.1784257e-03
   6.0334822e-03
  -9.8382819e-04
   5.4253163e-05
   5.3910095e-05
  -1.0046208e-04
   6.9671666e-04
  -2.8827707e-04
   7.3703429e-05
   6.6204933e-04
  -3.3962230e-02
   1.5162379e-03
  -9.5058566e-04
  -7.4475064e-04
  -1.9137718e-05
  -2.8335211e-04
   2.9699046e-05
   2.6241438e-03
   3.4900916e-03
  -1.3815451e-03
  -1.6333873e-03
  -7.5534208e-03
  -8.9112799e-05
  -8.5903929e-04
  -3.9843001e-05
   6.3570698e-03
   1.3222541e-04
  -2.4168854e-04
   1.7886120e-04
  -1.2858285e-04
  -7.1055727e-04
   5.3703792e-03
   2.8826915e-04
   8.0292667e-04
  -1.8220883e-03
  -8.2142834e-04
  -8.3345821e-03
   7.8494860e-03
  -2.9948139e-04
  -6.9272514e-05
  -1.5014602e-04
   2.2409915e-04
   1.1466322e-03
   3.2710690e-03
  -3.8484083e-03
   7.3723305e-06
   4.5545278e-03
  -4.9469360e-03
  -1.0405409e-02
   2.4403299e-02
  -5.7833169e-05
  -7.5268893e-04
  -6.9281687e-05
  -2.1345739e-04
  -2.5099042e-04
  -7.0845892e-04
  -2.4339862e-04
  -2.1500872e-04
  -1.4529002e-04
  -2.9931462e-04
  -1.1156816e-04
  -1.2063121e-04
  -5.7663505e-05
  -1.6973203e-03
   6.9924253e-05
   1.1650397e-04
  -2.8561084e-04
  -1.4844664e-04
  -5.0650653e-03
  -1.7968505e-02
   7.1841947e-05
  -1.4364875e-04
   3.6056659e-05
   3.3530241e-03
   1.9409454e-02
   2.5490363e-03
  -1.3053386e-04
  -4.3764964e-04
  -6.2696578e-04
  -1.0822158e-02
  -8.3239228e-04
   5.7856479e-04
  -9.8094171e-04
  -3.1262134e-04
   4.0576003e-03
  -4.8504040e-04
   2.8553221e-04
  -1.3094047e-03
   2.5003852e-03
  -1.3708002e-02
  -1.8989290e-04
  -3.3313347e-04
  -2.2741264e-05
  -2.8325682e-04
  -7.6504599e-04
  -1.1490981e-03
  -1.9471953e-02
  -3.6200678e-04
   8.2231259e-04
  -1.3716639e-05
  -1.4605231e-03
  -1.3630457e-03
   2.8232298e-04
  -2.7621305e-03
  -4.2632054e-04
   3.8208661e-04
   1.9093501e-02
  -9.6967047e-04
  -1.8973906e-04
   1.2215349e-02
   1.3034718e-02
   2.1156307e-04
   1.1658353e-03
  -3.1706169e-03
  -4.5918095e-03
  -1.1334909e-02
   1.0840236e-04
   3.4071752e-03
  -3.8379615e-03
   1.4124531e-04
   9.1158644e-04
   2.4159712e-04
   1.7209350e-04
   1.0765203e-03
   2.2691116e-04
  -1.0920320e-03
  -2.5941782e-04
   4.9368551e-03
   8.6669294e-03
   2.6512238e-05
  -3.5782147e-05
   2.5650831e-03
   1.1276717e-04
   4.1596868e-04
  -4.4825206e-04
   2.0070547e-04
  -1.3809151e-03
  -3.5030042e-03
  -5.5234486e-04
  -2.8443414e-04
  -3.4803590e-03
   8.8331497e-04
  -7.4215794e-04
  -1.3314317e-04
   9.6881489e-04
   6.1043227e-04
  -2.3872729e-05
  -1.4787098e-03
   9.5202294e-03
   4.0492549e-03
   5.8909281e-04
  -1.9036950e-02
   2.5498843e-03
  -1.7620835e-05
  -3.4203937e-04
  -1.6402081e-03
  -9.0754759e-05
  -3.2895931e-03
  -2.9146609e-04
   1.6772078e-03
  -4.1288559e-05
   3.2586576e-03
  -8.5765814e-04
   2.2535604e-02
   1.2056942e-02
  -3.4403627e-03
   2.0811458e-03
   5.4775949e-03
   3.3027323e-03
  -3.4824996e-03
  -1.2692426e-04
  -4.7512400e-04
   1.1812138e-02
   1.9884555e-04
  -1.1754293e-04
   2.3069064e-04
  -1.3910473e-04
   6.1260012e-03
  -1.5523779e-02
  -1.5620814e-04
   1.5419391e-04
  -5.0341491e-04
  -1.2448009e-03
  -3.4061528e-03
   8.3214609e-05
   1.2571074e-02
   1.3671601e-02
   9.6061213e-03
   3.4803158e-03
   1.6090194e-03
  -6.3760566e-05
  -5.0246887e-04
   5.9590712e-03
   1.5596713e-03
  -5.8655196e-04
  -3.5401941e-04
  -2.4157872e-04
  -1.0127162e-03
  -1.2303925e-03
   9.5456257e-04
   2.4935934e-03
   7.3106576e-03
  -1.3763349e-03
  -1.7207085e-04
   5.1707379e-04
  -2.7023073e-04
   8.4808215e-04
   1.8067509e-05
   9.3963688e-05
   1.8001202e-03
  -3.9315910e-02
   2.2430731e-03
  -2.0755853e-03
  -9.4970422e-04
  -1.8221630e-05
  -5.3777797e-04
   2.1188024e-04
   5.7869210e-03
   4.1635070e-03
  -1.6394197e-03
  -1.5987203e-03
  -8.6869288e-03
  -1.8638624e-04
  -1.7006578e-03
  -6.1442011e-05
   7.2324365e-03
   2.0621359e-04
  -2.4842827e-04
   1.3580552e-04
  -8.5965511e-05
  -1.7264163e-03
   6.7990492e-03
   2.4803500e-04
   1.6777883e-03
  -2.1693524e-03
  -8.8583900e-04
  -9.8114182e-03
   9.8575628e-03
  -3.6650342e-04
  -6.8315622e-05
  -3.4338663e-04
   6.4422084e-05
   2.4486093e-03
   3.6765756e-03
  -4.2675280e-03
   6.0593830e-05
   6.6683317e-03
  -1.2152254e-02
  -1.2686874e-02
   2.8351736e-02
  -1.9763371e-04
  -1.1831905e-03
  -5.8675099e-05
  -9.0802386e-05
  -4.6862515e-04
  -8.1810890e-04
  -4.7355212e-04
  -3.2808243e-04
  -2.4515044e-05
  -6.6123078e-04
  -2.6680547e-04
  -2.1580653e-04
   1.3943022e-04
  -4.5190413e-03
   1.8848787e-04
  -8.6689960e-06
  -5.5018327e-04
  -1.1219219e-04
  -5.8997915e-03
  -2.1005340e-02
   1.9319010e-04
  -4.7218154e-04
  -1.4589972e-04
   4.4261395e-03
   2.4638188e-02
   2.6102808e-03
  -8.6991596e-05
  -5.8080984e-04
  -1.4992342e-03
  -1.2433324e-02
  -3.4052851e-04
   2.0481097e-04
  -1.0526503e-04
  -7.6626982e-05
   3.9963936e-04
  -9.9436097e-04
   1.1549173e-04
  -4.0057916e-04
   3.2941226e-03
  -2.5745432e-04
  -2.3348244e-04
  -2.3756371e-04
   1.5244520e-04
  -8.6795246e-06
  -1.1128063e-03
  -1.5451081e-04
  -1.1467845e-03
   8.9987021e-06
  -1.2850070e-04
  -8.5997267e-05
  -3.9857802e-04
  -4.7631386e-04
  -3.3581921e-04
  -1.1164103e-03
  -3.2510068e-04
   1.7686978e-04
   6.3324542e-03
  -8.7400634e-04
  -1.8643445e-04
   4.4482320e-03
   2.4874270e-03
   1.3530083e-04
   6.0488519e-04
  -2.1827273e-03
  -1.2995006e-03
  -1.4475073e-03
   1.6099422e-04
   2.8179858e-04
  -4.2077869e-03
  -1.1383031e-03
  -3.1349476e-03
   2.7900768e-04
   2.0206857e-04
   8.7212007e-05
  -4.1033922e-04
  -3.0077805e-03
  -2.4832407e-04
  -3.7876519e-03
   5.6331507e-03
  -9.1076755e-05
  -2.1221874e-04
   3.4633924e-04
   5.3432716e-04
   3.0444694e-04
  -1.9174653e-05
   1.6848155e-04
  -2.8178474e-04
  -1.5172508e-03
  -1.0211770e-04
  -3.8851278e-05
  -4.9552516e-04
   5.0308712e-04
  -2.3991310e-03
   9.6607785e-04
   1.0254222e-03
   3.8342772e-04
  -1.4746231e-04
  -8.2564489e-04
   5.5392104e-03
   1.3235022e-03
   9.7380310e-05
  -2.0666615e-03
   2.2139615e-04
   2.6222335e-04
  -3.8742171e-03
  -8.4988248e-04
  -3.7153400e-04
  -5.2404077e-04
  -4.8190489e-04
   9.1248417e-04
  -8.9498724e-05
   2.6022318e-03
  -1.2825600e-03
   4.8244384e-03
   2.6692944e-03
  -1.7895808e-03
   1.9121596e-04
   3.1581553e-03
   4.0549019e-04
  -4.0082319e-04
  -1.2251887e-04
   4.3472005e-05
   3.9605986e-03
   6.3811367e-05
  -5.2290784e-04
  -2.8276222e-04
   2.6675622e-03
   4.1480686e-03
  -1.9059731e-03
   2.6240203e-04
  -1.5206099e-04
   2.8169583e-05
  -3.7444132e-04
  -2.7366148e-03
   1.1975992e-04
   1.0988651e-02
   6.6770220e-03
   4.1352960e-03
  -2.1302376e-03
   9.9253592e-04
  -2.9254363e-03
  -1.5562532e-03
   1.0472451e-03
   2.0596782e-04
  -2.1304927e-04
  -6.6027643e-04
   4.8978878e-04
  -1.4840826e-03
  -5.4703964e-04
   1.4017998e-03
   1.0736928e-03
   2.5293922e-03
  -5.2783377e-04
  -8.5429938e-05
   2.0575413e-04
   7.9238194e-05
   2.3557988e-03
  -5.0511657e-04
   1.7416668e-05
  -5.3634507e-05
  -4.3960859e-03
   2.4086767e-03
  -1.3587936e-03
  -2.8874858e-04
   1.0973787e-04
  -5.4791467e-04
   2.2866789e-04
   1.4806477e-03
   6.7224575e-04
  -3.2522694e-05
  -2.2198758e-04
  -1.5029808e-03
  -1.3615827e-04
  -1.0500005e-03
  -4.9241415e-05
   2.0950369e-03
   2.0943460e-04
  -3.3980399e-04
  -7.9927683e-05
   2.0323543e-05
  -1.4773578e-03
   5.0211268e-03
   4.1237616e-04
  -2.9372510e-03
  -2.3933191e-04
  -2.8540434e-04
  -1.1782396e-03
   4.4238563e-03
  -2.1827388e-04
   5.8841679e-05
  -1.9510316e-04
   4.6302005e-05
   4.7083718e-03
   5.1261295e-04
  -6.6431229e-04
   2.5013600e-05
   4.2805568e-03
  -5.4856814e-03
  -2.5694277e-03
   6.6099860e-03
  -3.0429568e-04
  -7.9195506e-04
  -3.4922566e-04
   1.5205050e-04
  -1.5548338e-04
  -1.3054666e-04
   4.1817928e-04
  -9.3254706e-05
  -1.4637929e-04
  -5.1033541e-04
  -4.7260466e-04
  -2.2674518e-04
  -1.2607316e-04
  -3.8530696e-03
  -5.8754012e-05
  -3.1781065e-05
   7.7764967e-04
  -1.1702852e-04
  -9.9807117e-04
  -2.3883398e-03
  -1.9968790e-04
  -1.4913432e-04
   1.8975412e-04
   5.2740721e-03
   1.0364041e-02
  -3.3132915e-03
  -5.7305064e-05
  -2.1918435e-04
  -1.3698469e-03
  -1.7452604e-03
   9.0988071e-05
  -9.9513300e-05
  -1.3860527e-04
   7.0469881e-05
   5.2177064e-05
  -1.7291749e-03
   1.5535008e-04
  -5.3470328e-04
   8.6664205e-04
   1.4012329e-03
   8.6082673e-05
   2.2571944e-05
   5.1181998e-05
  -1.5295177e-04
   6.4647162e-05
  -2.2646596e-04
  -4.4023047e-04
  -1.6247662e-04
   2.2465261e-04
  -1.3419309e-04
  -2.4315993e-04
   6.7365913e-05
  -4.4328378e-04
  -8.7731865e-04
   7.8988464e-06
  -4.6857644e-05
   2.1220548e-03
  -4.3841296e-04
  -2.8022437e-05
   3.7789477e-03
  -8.8484048e-05
  -2.4513541e-05
  -2.5843269e-04
  -1.9273209e-03
  -5.9974595e-04
  -7.3538842e-04
   1.7304713e-04
  -6.1506349e-04
  -5.4657166e-03
  -2.2998010e-04
  -1.1306329e-03
  -1.0582253e-06
  -1.5324298e-04
   5.5015141e-06
  -2.1591003e-04
  -3.3360562e-03
   1.0315467e-03
   1.5336746e-03
   3.3497222e-03
   1.0385308e-04
   3.3301692e-04
   3.4901661e-05
  -1.2493286e-04
   9.8971825e-05
  -1.2382495e-04
   1.6726051e-04
  -8.1398441e-05
  -3.6278276e-03
  -1.4212248e-04
   3.1890411e-04
  -3.5234033e-05
  -8.5200589e-05
  -1.4363923e-03
  -2.6085428e-04
   1.5826548e-03
  -4.1619949e-05
  -1.5210478e-04
  -6.1292273e-04
   2.0945929e-03
   2.7832508e-04
  -1.7847573e-04
   2.4594162e-05
  -6.2037391e-05
  -7.1603888e-05
  -1.8590923e-03
  -1.3376482e-03
  -3.5638139e-04
  -1.3118099e-05
  -2.3946973e-04
   4.6876591e-04
   8.9149035e-05
  -1.1886606e-03
  -7.7063507e-04
   1.4236196e-03
   6.0207331e-05
  -1.9158577e-03
   6.9005498e-05
   7.9325460e-04
  -7.8370762e-05
   1.2296592e-04
   9.4491867e-05
   2.4029385e-04
  -1.1062826e-04
  -7.7886699e-05
   2.2950208e-04
  -1.6786794e-04
   4.5221720e-03
   2.0674484e-05
  -1.1270127e-04
   2.3316777e-06
   1.2155542e-04
   1.1421097e-04
  -3.1985835e-03
  -2.3741208e-03
   1.4846689e-04
   3.7011896e-03
   5.2121831e-03
   3.3411897e-04
   8.1710032e-04
   1.1327802e-03
  -1.7651435e-03
  -2.1600503e-03
   1.0118259e-05
   5.9041443e-06
  -1.8785366e-04
  -3.6761237e-03
  -4.4705014e-04
  -6.5198993e-04
  -2.5259189e-04
   4.4372944e-03
   8.7382665e-04
   1.1484714e-03
  -1.8270295e-03
   1.6953587e-04
   6.4710011e-05
  -1.3315768e-04
  -5.5349096e-05
  -1.9765548e-03
   1.9867414e-04
   1.8178584e-04
   8.0259401e-05
   2.6991165e-03
  -2.8483309e-04
   1.5446218e-04
  -1.4024553e-04
  -1.2015780e-04
  -1.0992797e-05
   5.6598256e-05
   3.4747402e-04
   9.9447685e-06
  -1.7440450e-04
  -4.5155596e-04
  -1.5145320e-04
  -2.2011753e-04
  -1.9789543e-05
   1.2060043e-03
   1.2626259e-05
  -2.0270180e-03
  -9.2023007e-05
  -1.2850547e-04
  -8.9709935e-04
   2.1206554e-03
   3.1600496e-04
  -9.3030240e-04
   1.8896956e-04
   1.7777299e-04
  -1.4057877e-04
   3.7647013e-03
   7.2503392e-05
   4.8978928e-05
   1.3127188e-04
   1.7256115e-05
   1.0227680e-04
   6.0132106e-05
  -8.9945533e-05
   1.4099809e-05
   1.6921711e-03
  -1.1135545e-03
  -5.7566969e-04
   1.1563548e-04
  -5.1717022e-04
   5.9377997e-05
  -4.2761302e-04
   4.8961429e-05
   2.6739967e-04
  -1.4451346e-03
  -1.8171334e-04
  -1.5509148e-04
  -4.9420937e-05
  -3.2153957e-04
  -3.0447914e-04
  -6.3602981e-04
   2.3703112e-04
  -3.6695550e-04
   2.4436966e-05
   4.8550582e-06
  -8.0144281e-04
  -1.6982198e-04
  -2.8633322e-04
  -1.6380854e-04
  -1.8304875e-04
   6.2511559e-05
  -2.4735240e-04
   4.6418369e-03
   7.6474646e-04
   3.5991340e-04
   1.7120453e-04
  -6.2522728e-05
   3.3196743e-04
   8.6490231e-05
  -1.4823059e-04
  -5.3007179e-04
   2.3476623e-04
  -7.7195554e-05
  -8.9094182e-04
   1.9095698e-04
   9.9118111e-05
  -6.3305591e-05
  -1.7896416e-04
  -1.0070859e-04
   5.1797844e-05
  -7.2206501e-06
   1.8719041e-04
   8.0451030e-05
   1.1938517e-04
  -7.7437018e-05
  -8.9934986e-05
   1.3187956e-04
  -1.8007389e-05
   1.0565452e-04
  -5.6233850e-05
   1.2275443e-04
  -1.1659842e-04
   1.4645915e-04
   8.4910896e-05
  -5.9564742e-06
  -2.2211102e-04
  -1.1813364e-04
   7.6066631e-05
   4.2708156e-04
   7.5963781e-05
   8.5522049e-04
   1.4921682e-04
  -6.4970445e-05
   1.8386784e-05
  -3.4018042e-04
   1.0582421e-03
   2.4534331e-05
   5.2922758e-05
  -8.4768691e-05
   4.6854764e-05
  -9.3047692e-06
  -1.3063911e-04
  -1.7038191e-04
   2.2685316e-04
  -8.2035461e-05
  -7.2007969e-05
  -8.4291687e-05
  -9.6963748e-04
  -4.8629325e-05
   7.2805860e-05
   6.4303271e-04
   3.1409612e-05
  -7.4147241e-05
  -1.3466974e-05
  -1.2006981e-04
  -1.1084263e-04
  -1.0069682e-04
  -7.9118545e-05
  -1.6260081e-05
   4.5663535e-04
   1.9343787e-04
   6.0498644e-05
   2.8017126e-04
  -3.4271301e-05
   2.7537524e-04
   1.5562867e-04
  -1.8951241e-04
  -5.2418208e-04
   1.6505730e-04
   7.0513652e-05
   1.9465033e-05
  -2.4970648e-04
   6.5968143e-04
  -1.1599660e-04
  -1.0599678e-04
  -7.8380030e-05
  -1.9343000e-04
  -1.4644249e-05
  -1.8784270e-05
   1.6620218e-04
   5.1547760e-04
   8.5840561e-05
  -4.7101205e-05
  -1.4200316e-05
   1.0256719e-04
  -1.2393644e-04
  -1.9267851e-04
   2.1249650e-04
   6.7767041e-05
   1.2923647e-03
   3.7898229e-04
   1.1028632e-04
   4.5940026e-05
   4.6310882e-05
  -5.6267364e-05
  -1.7516358e-06
  -8.4593554e-04
  -1.1181272e-04
  -1.2202830e-04
  -1.5472779e-05
   1.1516314e-05
   3.1769935e-04
  -6.3706407e-04
  -2.6782479e-04
  -5.3541948e-04
  -2.9720546e-05
  -8.8142427e-05
   1.5351445e-04
   9.3791561e-05
  -9.3409257e-05
  -5.4696026e-05
  -3.0257879e-04
   1.0485523e-04
   1.2263937e-04
   1.0577252e-04
  -8.4112365e-05
  -2.1008562e-04
   1.2150491e-04
  -1.3838540e-04
  -9.4940480e-04
   3.0349719e-05
  -1.3059431e-04
   3.0816177e-04
  -4.5282662e-05
   5.3590043e-04
  -7.7822307e-06
   2.3653610e-04
  -8.1326897e-05
  -1.3716367e-04
  -9.0462492e-05
  -1.5123148e-05
   1.2875878e-04
  -8.3472286e-05
   1.7794122e-04
  -1.7307728e-04
  -1.9272436e-05
   6.7019960e-05
  -9.2583914e-05
   1.3389464e-04
   7.9017029e-05
   3.9742827e-04
   9.0846828e-05
  -1.5004043e-04
  -8.2220055e-05
  -6.5025946e-05
   8.1907395e-04
  -2.9562324e-05
  -1.0541489e-04
   4.1002577e-04
  -1.6369977e-05
   1.3775641e-04
   1.4614508e-04
   1.1777005e-04
   3.0097847e-05
   8.6239967e-05
   2.6637471e-04
  -1.3043358e-04
  -6.5070613e-05
  -1.7672071e-04
   2.2620546e-04
   8.4252437e-06
  -9.9444147e-06
  -7.6400030e-04
   8.6380835e-04
  -7.9118647e-05
  -1.8316813e-04
  -1.4750378e-04
  -2.0253850e-04
  -6.0551023e-05
  -1.4150237e-04
  -1.6015634e-05
  -1.5083507e-03
  -5.3746624e-05
   5.4776833e-04
   1.3989146e-05
   1.3177206e-04
  -5.5491258e-05
   3.1040929e-04
  -1.4375914e-04
  -1.5534513e-04
   6.2226499e-05
  -1.8018188e-05
   5.5337441e-05
   5.2641737e-04
   2.2336993e-05
   5.1752415e-05
   1.3174098e-04
   3.7619518e-05
   1.2315921e-04
   5.1531398e-04
  -1.0460870e-04
  -1.5390375e-04
   6.9500984e-05
  -7.4116581e-05
   5.5673264e-05
   7.5491194e-04
   8.7799829e-05
   1.5071172e-04
   6.8030772e-04
   6.7180945e-03
  -2.1783271e-05
   1.5964178e-04
  -5.5600916e-05
  -2.6908175e-04
   5.4701564e-03
   3.1844040e-04
  -2.8646780e-03
   1.0287529e-04
  -8.1372541e-04
   3.1187113e-03
   4.8723475e-04
  -6.2806336e-04
   1.2384812e-04
  -1.1350610e-03
   9.6414959e-03
  -5.1099702e-04
  -9.8008982e-05
   4.8464783e-05
  -4.4037603e-05
   1.9827854e-03
   4.7048146e-04
  -5.1394984e-04
  -1.3666293e-03
  -1.7289016e-04
  -4.9706232e-04
  -3.7476997e-03
  -2.7630767e-04
  -2.5950226e-04
   1.1173137e-04
   1.3333365e-03
  -3.6143575e-04
  -3.8504751e-03
  -1.2367392e-04
  -5.7892838e-04
  -1.6384297e-04
   2.4655545e-03
  -7.3987350e-04
  -1.4793599e-03
   4.8318670e-04
  -1.5406686e-03
  -5.7010394e-05
   1.1222556e-04
  -1.7786196e-04
   2.3894148e-04
   1.8206011e-03
  -6.8060086e-04
   3.2587519e-04
  -5.9610406e-03
  -3.7876277e-04
   1.6921502e-04
  -6.0509440e-04
  -1.6763371e-03
  -9.7415801e-04
  -5.1654616e-04
   6.6299982e-05
   7.6616707e-03
  -4.7918194e-04
   6.8318222e-03
   4.0739011e-03
   1.1428120e-04
  -8.0770612e-04
  -6.6047552e-04
  -1.9414734e-03
  -3.7020715e-03
  -2.4272060e-03
   6.4892836e-05
   3.8425361e-03
  -3.7047775e-03
   1.4278088e-04
  -6.0900268e-04
   5.5731254e-03
  -4.9207626e-04
  -1.8604373e-03
  -4.6477613e-04
  -1.6118091e-06
   1.3119038e-02
   3.9209704e-04
   5.2477782e-03
  -2.4980905e-04
   1.9537465e-04
   1.5708829e-04
   9.9294718e-04
   1.0988415e-03
  -1.3955924e-03
  -5.1860535e-03
  -1.5420594e-04
   4.1116139e-04
   3.4198698e-04
  -3.2621393e-04
  -7.1251313e-05
   5.8499682e-04
  -3.1051787e-04
   2.5300052e-04
   1.7445431e-03
  -1.2894981e-03
   9.6827785e-03
  -3.4103776e-03
   2.9081448e-03
  -3.7028818e-04
   7.9967297e-05
   4.8157930e-04
   3.6377496e-03
  -3.0513444e-03
  -1.8851227e-04
   1.3596763e-03
  -1.4527280e-04
  -2.0968875e-03
   1.1484377e-04
  -3.6025124e-04
  -2.9694095e-03
   6.4470786e-03
  -4.4089505e-04
   9.5075683e-05
   4.6487398e-03
   4.4115890e-04
  -1.0308541e-03
   2.7468244e-03
  -8.3120270e-05
   1.1175106e-03
  -1.6450856e-03
  -3.0383248e-04
  -1.4391616e-03
   2.3971726e-04
  -8.8871487e-05
   1.2425051e-04
  -2.1924214e-03
  -8.1025881e-04
  -1.8148927e-04
   1.9403661e-03
   3.4553254e-04
  -7.1155524e-04
   1.8144181e-03
  -1.5583573e-04
   5.8378484e-06
   8.1271468e-03
  -3.2010284e-04
  -1.0524036e-04
  -8.5732910e-06
  -8.1980092e-05
   1.0532444e-04
  -9.6611820e-05
   2.2343412e-04
  -3.4046790e-04
   3.1944017e-04
  -4.5789291e-04
  -9.1593581e-05
  -1.4792024e-03
   1.5322726e-04
   6.9758678e-04
   3.3326233e-04
  -3.1169597e-04
  -7.2476706e-04
  -8.6568479e-05
  -1.6605361e-03
   2.2006300e-04
   1.2822931e-03
   3.3516682e-04
   2.1716259e-05
   1.6832793e-04
   1.5413292e-03
  -1.4312949e-04
   1.0649920e-03
   4.7132731e-05
   4.1216997e-04
  -1.0093768e-04
   2.0627472e-04
   2.3167805e-04
  -1.1240904e-03
  -5.5808919e-04
  -9.1226845e-05
   5.1645007e-03
  -2.3272471e-03
   5.9787875e-05
  -9.0385782e-05
  -1.2351834e-04
  -2.5302859e-03
   4.6414170e-03
  -3.0116223e-04
   6.0400126e-03
  -7.1098345e-05
   1.5747701e-03
   1.6283332e-03
  -4.7352322e-03
  -4.4019396e-05
  -4.3130929e-04
   5.6152445e-05
   1.0159573e-02
   4.7517408e-03
  -2.1700799e-03
   2.2464740e-04
   1.1346641e-03
   2.4227817e-04
   2.2093877e-04
  -5.1300465e-04
   1.0013416e-04
  -1.7355958e-04
   2.8190261e-04
   3.8574258e-04
   1.4702490e-04
   2.1528614e-03
  -7.0838633e-05
   1.7353376e-04
   7.0452653e-05
  -7.4226183e-05
   1.6774675e-03
   1.7120258e-04
  -9.3208530e-04
  -1.5042649e-04
  -3.4071551e-04
   8.7301556e-04
   1.3480344e-04
  -3.6262606e-04
  -1.1871397e-04
  -4.9793476e-04
   3.2264015e-03
  -2.0680010e-04
   1.1537258e-05
   5.9064550e-05
  -2.0368719e-04
   7.9055603e-04
   4.4536615e-05
  -2.1383126e-04
  -3.8472915e-04
  -1.1381190e-04
  -2.5140096e-04
  -1.2068690e-03
   2.4382415e-05
   1.0875092e-05
   6.4565177e-06
   2.9856403e-04
  -1.4122138e-04
  -1.5061450e-03
   1.3958654e-04
  -2.1632818e-04
  -2.0952404e-04
   8.0728357e-04
   2.7832281e-05
  -4.0829503e-04
   1.1134954e-04
  -4.3114019e-04
   1.9788736e-05
   5.5237081e-05
   6.2525505e-06
  -6.3476079e-05
   5.7760171e-04
  -1.0923415e-03
   1.1757407e-04
  -2.1512913e-03
   3.4695291e-05
   8.3165495e-05
  -4.4911716e-06
  -5.1789501e-04
  -3.7718027e-04
  -2.2004808e-04
   7.5193560e-05
   2.6204745e-03
  -2.1072273e-04
   2.2757891e-03
   1.1757821e-03
   6.3755841e-05
  -2.5220654e-04
  -1.5725873e-04
  -6.7791618e-04
  -1.2992340e-03
  -8.2761367e-04
   5.5771780e-05
   8.3592391e-04
  -1.1899812e-03
   1.0339184e-04
  -6.5188522e-05
   1.7697806e-03
  -1.5273428e-04
  -4.1115693e-04
  -1.1968000e-04
  -9.3153471e-05
   4.4198977e-03
   3.0502828e-05
   1.6731990e-03
  -2.0625568e-04
  -3.3243480e-05
   1.2596121e-04
   2.6508081e-04
   3.1726094e-04
  -5.7991917e-04
  -1.5521524e-03
   3.8836580e-05
   1.4555224e-05
   8.9400658e-05
  -3.4074277e-05
  -1.3058346e-05
   6.0673311e-05
   7.8015030e-05
  -1.2088286e-05
   6.7045597e-04
  -5.5655078e-04
   3.0928860e-03
  -1.0641510e-03
   9.5437053e-04
  -1.9899272e-04
   1.6509517e-04
   1.8992091e-04
   9.6978106e-04
  -9.4957905e-04
   1.1429110e-04
   5.7209853e-04
   6.3100651e-06
  -6.8888625e-04
  -5.4261526e-05
  -3.0269550e-04
  -1.0906790e-03
   1.9539972e-03
  -1.6771572e-04
  -4.8807661e-05
   1.6394313e-03
  -1.9351883e-04
  -2.4668155e-04
   7.9988747e-04
  -8.6072288e-05
   3.6251363e-04
  -5.2096382e-04
  -1.8953008e-04
  -6.0325150e-04
   2.5146539e-04
   3.2028010e-05
  -3.6898830e-05
  -5.2254163e-04
  -1.0104111e-04
  -2.1681557e-04
   4.0834775e-04
   1.3668307e-04
  -1.4739687e-04
   4.8571756e-04
  -2.1712741e-04
   2.1993174e-05
   2.6209452e-03
  -1.1475372e-04
  -2.7084087e-04
   3.7773959e-05
   9.4736604e-05
   1.4672039e-04
  -1.4659305e-04
  -3.0200608e-05
  -1.5161910e-04
   1.2216208e-04
  -6.5828967e-05
  -8.6323927e-05
  -4.1930823e-04
   1.8120768e-04
   2.9031654e-04
  -4.8661024e-05
  -1.3083159e-04
  -1.3400050e-04
   1.7481821e-04
  -6.9080601e-04
  -3.9797843e-05
   5.4253491e-04
   1.1808113e-04
   1.0256443e-04
   1.0959697e-04
   4.0583992e-04
  -1.0768046e-04
   1.5304035e-04
   1.8767844e-05
   2.3449436e-04
   1.8364651e-05
   2.1309738e-04
   2.8128735e-04
  -4.3887318e-04
  -8.2239512e-05
  -1.3104697e-04
   1.6492436e-03
  -7.3780019e-04
   7.4759798e-05
  -1.1872647e-04
  -1.4087853e-04
  -9.1806002e-04
   1.5863987e-03
  -1.7763913e-04
   1.7364225e-03
  -1.5966264e-04
   5.5562546e-04
   4.3951642e-04
  -1.5503340e-03
   1.3867331e-04
  -1.2959846e-05
   3.5636067e-05
   3.2408294e-03
   1.5498200e-03
  -5.7131046e-04
   4.9798294e-05
   4.7716514e-04
   1.9086260e-04
   3.6819055e-04
   1.2767880e-04
  -4.5983897e-04
  -2.3668754e-05
  -1.1271063e-04
   1.1704217e-04
   1.6408320e-04
  -1.2112617e-04
  -3.9732623e-05
  -2.5659017e-05
   1.0914255e-04
   1.1626698e-04
  -2.6174341e-05
  -1.1731397e-05
   1.3144563e-04
   2.0641975e-04
   2.3857434e-04
  -1.4900368e-03
  -7.5591743e-05
   1.0793722e-04
  -1.8001405e-05
   1.2544959e-04
  -3.3746931e-04
   8.9273175e-05
   1.6370097e-04
  -5.4809800e-06
  -1.6324881e-05
  -1.7342553e-04
  -7.8365238e-05
  -1.4322602e-04
  -1.3478767e-04
  -6.9978580e-05
  -4.6863792e-05
   2.4423221e-04
   2.2494704e-05
   4.9094533e-06
   3.9371966e-04
   2.7419056e-06
   4.4076207e-05
  -2.5291091e-04
  -7.4935319e-05
  -2.6345481e-05
   1.1750108e-04
  -1.0454015e-04
   2.4614132e-03
  -2.6283949e-04
  -1.1267852e-04
  -7.1554745e-05
  -1.0983882e-07
   1.5873008e-04
   6.5993297e-04
  -5.2988060e-05
  -7.8473274e-06
  -4.1542602e-03
  -1.5205137e-04
  -5.7859920e-05
   6.8988125e-05
  -2.9769565e-06
   1.5049722e-04
  -5.2882887e-05
  -4.8573274e-05
  -1.0266479e-04
  -1.0272475e-04
  -9.7858402e-05
  -3.5765231e-05
  -2.2964653e-04
  -1.5140420e-04
   8.5961545e-05
  -9.7886114e-05
   7.4593435e-05
  -5.8758820e-05
  -3.4718356e-05
  -7.1912809e-05
   8.0447568e-05
  -2.0065243e-03
   3.2456332e-04
  -1.9103391e-05
   6.6661416e-05
  -1.0679546e-04
  -1.0067637e-04
   2.8225222e-05
  -1.9579545e-04
   1.3692743e-04
   4.1591472e-05
   6.2433592e-05
  -1.5963795e-04
  -5.6374816e-05
   4.6666758e-06
   7.6910701e-04
  -1.3676160e-04
   2.3353067e-04
   1.7028692e-04
  -1.1552739e-04
  -7.6000232e-06
  -3.3802277e-04
   6.4411508e-05
   1.2688008e-04
   9.5578855e-05
   1.0215842e-04
   2.2867753e-04
   5.0804476e-05
   1.2491108e-05
   6.4929796e-06
   7.3065623e-05
  -3.6840258e-05
   1.1768916e-04
  -6.0736579e-05
   1.6656293e-05
  -3.1606043e-05
  -5.7866559e-04
  -7.2017684e-05
   4.0394365e-05
   2.3136063e-04
   9.1622332e-05
   2.3357853e-04
   8.2033349e-05
   1.5904313e-04
  -1.2956609e-03
  -1.9116108e-04
   1.6109810e-04
  -2.6997788e-04
   6.4702607e-05
  -1.2603543e-03
   2.6021888e-04
  -1.2569269e-04
  -2.0579328e-04
   1.3665568e-04
   4.0926273e-05
   4.2386916e-04
  -1.1883687e-04
   1.1029345e-04
   1.5545983e-05
  -1.4858454e-05
   1.1740793e-04
   1.7809538e-04
  -1.5037869e-04
   3.9457963e-05
  -1.9248410e-04
  -8.4351067e-06
  -1.4212109e-04
   1.1247116e-04
   1.7559214e-04
  -1.1381125e-04
   9.0728944e-05
  -2.7506648e-04
   7.5134337e-05
   2.7211672e-05
  -8.9857445e-05
  -1.0196164e-04
  -6.5210295e-05
  -3.5751270e-05
  -5.0217428e-05
  -1.1005380e-05
   2.7924077e-06
   1.2109656e-04
  -1.2252516e-04
  -1.7320022e-05
  -4.3340564e-04
   6.5169720e-04
  -8.2175724e-05
   2.8498604e-05
   1.5299766e-04
  -3.1109866e-04
  -3.2290411e-05
   1.7240296e-05
   1.9672156e-05
   1.4488879e-05
   8.6705352e-05
  -8.9497820e-05
   6.4401443e-05
  -1.3130493e-05
   1.1009638e-04
   5.7471631e-05
   1.7777105e-03
  -7.9031453e-05
  -4.7270102e-04
   9.7821894e-04
  -1.1266326e-04
  -4.6363120e-04
  -5.2212606e-05
   8.5713343e-05
   6.8613439e-05
  -9.5215893e-05
  -2.6278487e-04
  -1.7331145e-04
   1.3667107e-04
  -6.9301940e-04
  -1.6365693e-05
  -1.8316939e-04
  -6.5605681e-04
  -3.9157358e-05
   1.1525443e-04
   1.7275175e-04
   1.1892723e-04
  -2.2317634e-04
  -2.7996049e-04
  -1.4673650e-04
  -6.4958547e-05
   1.6251511e-04
  -7.2135104e-07
   8.1715443e-04
   2.3216594e-03
  -1.8615297e-03
   1.4270246e-04
  -1.6392323e-04
   3.4272380e-05
   3.7334789e-05
   7.6970038e-05
  -1.2974122e-04
  -1.9187154e-05
   3.1101060e-06
   1.0791572e-05
   1.2731634e-04
   6.2903013e-05
   1.0824677e-04
   1.1057936e-05
   1.6135736e-04
  -1.5336806e-04
   1.4694671e-05
  -7.7277980e-05
  -6.7600337e-06
   6.5429707e-05
  -1.0325748e-04
   3.8281927e-05
  -6.1522284e-05
   1.3479504e-04
  -1.2975437e-04
  -1.4072168e-04
   1.6249740e-04
  -1.2285003e-04
  -1.2297883e-04
  -1.2191189e-04
  -1.4526563e-04
  -1.6130729e-05
   5.9778046e-05
   1.1725916e-04
   1.0272429e-04
   7.5285775e-05
  -9.6986938e-06
   7.3826585e-05
   1.6212314e-04
   2.0441719e-06
  -6.8998467e-05
   1.0257423e-04
  -9.3301801e-05
  -9.4039447e-05
  -1.2494108e-05
   4.2255131e-05
   4.0819076e-05
  -1.3356650e-04
  -1.3315252e-04
  -7.6287442e-05
   8.3434020e-05
  -3.1391140e-05
   1.1643811e-04
   1.5400198e-04
  -3.5723812e-05
  -1.5848793e-04
   2.5195232e-05
   8.7658998e-05
  -6.3622042e-05
  -2.5007898e-06
  -9.8516748e-05
   1.5547422e-04
  -6.2627721e-06
   1.4156003e-05
  -9.8727571e-05
  -1.4300908e-04
  -1.5567272e-04
   1.1308528e-04
   9.6085592e-05
  -1.0770384e-04
   1.3984602e-04
   6.5230217e-05
   5.5513412e-05
   1.7356292e-04
  -1.6504265e-04
  -2.6809396e-05
  -3.5451257e-06
   2.9555130e-05
  -1.4749530e-04
   5.6684281e-05
  -1.5845472e-04
   2.0114298e-05
   7.5043093e-05
  -4.2788492e-06
   4.1622949e-05
  -1.0130405e-04
   5.1553655e-05
  -4.2244835e-05
  -1.4025978e-04
  -4.3352924e-05
  -8.3931789e-05
  -9.1567999e-05
   4.3507087e-05
   8.1149306e-06
  -3.0708172e-05
  -9.9883191e-05
   1.2690457e-04
   1.2777335e-04
  -7.6471481e-05
   4.0841533e-05
   9.8921033e-05
   1.6098625e-04
   1.4851215e-04
  -4.0767719e-05
  -1.1940234e-04
   1.0503062e-04
  -1.3668350e-04
  -1.2075392e-04
  -5.1027432e-05
   1.2308382e-04
   2.9299138e-05
   3.0501266e-05
   1.5071884e-04
   2.6572804e-05
  -1.7343600e-04
   1.0949936e-04
   3.8511054e-05
  -7.1092455e-06
  -8.1957063e-05
  -8.5618083e-05
  -6.7213842e-06
  -9.6503310e-05
  -1.5976531e-04
  -1.1706680e-04
  -8.5494233e-05
  -1.0692011e-04
   3.7408443e-05
   1.1456995e-04
   1.0993741e-04
   1.0697217e-04
   7.3658545e-05
   1.2719629e-04
   9.9485564e-05
  -1.0483657e-04
   1.7461129e-04
  -1.4383038e-04
   5.3309129e-05
  -1.0080891e-04
  -9.0652196e-05
  -5.6740048e-05
  -1.0693700e-04
   2.4185691e-06
   1.5953889e-04
  -3.7302162e-05
   2.9895038e-05
   3.7707228e-05
   7.5969558e-05
  -3.4849701e-05
   1.2695320e-04
   1.4882423e-04
   8.8780587e-05
  -7.5886535e-05
   1.0505341e-04
  -1.2643757e-04
   1.6104703e-06
   3.9176307e-05
   7.2130736e-05
  -4.1290046e-05
   8.0939003e-05
   1.3707349e-04
  -1.5720069e-04
  -1.2804779e-04
   1.2850129e-04
  -2.7696635e-05
  -3.1388991e-05
   1.6250605e-04
   8.8570492e-05
   1.7024157e-04
  -9.4318003e-05
  -1.4290936e-04
  -4.0850365e-05
   9.6465236e-08
   2.4865990e-05
   1.6869646e-04
  -2.5287994e-06
  -3.5080993e-05
   1.7519423e-04
  -8.4591098e-05
   5.8514152e-05
   1.6431653e-04
   6.0576290e-05
  -7.1078987e-05
   1.1016758e-05
  -1.7644948e-04
   1.3583618e-04
  -3.3841871e-05
  -7.0360241e-05
   1.5947646e-04
  -1.3927970e-05
  -7.5158914e-05
  -1.4701505e-04
   2.9086826e-05
  -1.2279103e-04
  -1.5109674e-04
   2.8514670e-05
  -7.5382869e-05
  -4.8871273e-05
   7.9573260e-05
   1.2681894e-04
  -5.3827916e-05
   1.6342779e-04
   1.6053383e-04
  -1.0404357e-04
   9.4941163e-05
   4.0890741e-05
  -5.2272757e-04
   1.4053558e-02
  -1.5742853e-02
  -1.2690861e-04
   2.7727317e-02
  -1.0051902e-03
  -2.8425600e-02
  -4.7549764e-03
   2.4085408e-03
   6.0178508e-04
  -6.5286989e-05
  -2.0992236e-03
  -5.8650338e-04
  -6.6655887e-03
   1.8948762e-05
  -2.0177026e-03
   2.6810335e-03
  -2.4780665e-04
  -1.7345801e-03
  -2.2965523e-05
   1.0459650e-02
  -4.9759740e-05
  -7.5787997e-04
  -2.1387731e-03
  -2.1897872e-03
   1.7684309e-04
   1.2854373e-03
  -1.6095871e-03
  -8.6701831e-04
   8.7928125e-03
  -8.2647752e-03
   1.0542793e-02
   4.1763007e-03
   1.1775209e-04
  -2.1896325e-03
   1.0909608e-02
  -8.3557931e-04
   6.8992442e-03
   1.7567803e-03
  -1.6608302e-04
   1.4710449e-03
   5.7748090e-03
  -2.5043999e-04
  -4.8421000e-03
   1.6887919e-03
  -3.1483331e-04
   2.7400024e-04
   1.5683148e-02
   5.4405562e-03
   1.2854205e-03
  -1.8983636e-04
   3.7894942e-05
   1.8322186e-03
   1.4105764e-02
  -3.6716729e-03
  -1.5106949e-05
  -1.8378031e-03
   2.9711702e-03
  -6.6058778e-04
  -6.8370929e-04
  -6.9512227e-03
   4.1177494e-04
  -1.7779240e-04
   8.6701052e-04
   5.1134821e-04
   4.5958917e-04
   8.9409123e-05
   9.3862002e-03
   2.0414921e-02
   4.8541143e-04
  -8.6025104e-04
   6.7964546e-04
  -2.8029280e-03
  -4.0501646e-04
  -1.5147691e-04
  -1.1029755e-04
   1.9378964e-04
  -9.2404741e-03
  -1.3984157e-04
   1.4979610e-02
  -1.0896309e-04
  -7.0637917e-05
  -5.6362271e-05
   2.4395471e-02
   1.1259304e-02
  -5.2682880e-02
   2.9523203e-02
   3.1368477e-02
  -8.3462710e-03
  -4.3348600e-03
  -5.7759400e-05
  -3.3691005e-03
   1.4248410e-05
   6.7696525e-04
  -9.1105689e-03
   4.9712910e-03
  -2.2257819e-04
   1.4366321e-02
  -1.5540474e-02
  -1.7176691e-02
   8.2392077e-05
  -1.2988067e-03
   8.4738255e-04
   8.6562750e-03
   9.3092371e-05
   4.2702623e-03
   2.1737938e-02
   2.3097937e-03
   6.3720504e-04
   1.3255021e-03
   1.5272442e-04
  -1.4348466e-04
   5.0380428e-03
  -2.9272423e-03
  -1.8607290e-04
   1.3688195e-03
   1.6148305e-04
   1.8625670e-03
  -1.1016196e-02
   8.2460330e-04
   2.4673674e-02
   3.6025115e-02
  -4.2186224e-04
  -2.4043166e-04
   6.2621492e-04
  -5.7563368e-04
   7.8610395e-04
  -5.1667730e-03
   3.2374912e-05
  -5.6872912e-05
  -1.8102322e-03
  -1.5270149e-05
  -1.8989783e-04
   3.9905034e-03
  -1.2267570e-04
  -1.1851690e-04
  -1.2098289e-04
   6.2685444e-04
   4.5921843e-03
   1.5058717e-02
  -1.7110341e-02
  -7.3085953e-03
  -3.5488565e-03
  -4.7352104e-05
  -2.4276753e-04
   2.3600479e-03
   2.2476685e-05
  -2.2496640e-05
  -4.9432407e-03
  -4.0712985e-04
  -2.0431925e-04
   3.5868007e-03
   8.3424796e-05
  -1.6581440e-04
  -1.7405993e-04
   3.1484548e-04
  -4.0458272e-04
   5.3056964e-03
   2.4025611e-05
  -1.7704540e-04
  -1.8368797e-04
  -5.2853765e-05
  -2.6238451e-04
   3.3742210e-02
  -1.7654437e-02
   1.9613554e-05
   1.4817963e-03
  -2.3722692e-04
  -1.4786734e-03
   2.6688605e-04
  -6.5560686e-04
   1.4038361e-02
   5.5933913e-04
  -5.0497487e-05
  -6.7048828e-03
   2.8673755e-05
   2.8211371e-04
  -2.5203800e-02
  -9.2583252e-03
  -5.8753478e-04
  -6.1713232e-04
   8.3049998e-04
   7.1977426e-04
   3.5996445e-04
  -3.6098524e-04
   4.1295102e-05
  -3.4833217e-03
   2.2941823e-04
  -6.8956990e-03
  -3.7012164e-03
   7.7549372e-06
  -3.3990855e-04
   1.9715912e-04
   3.4765414e-03
   5.0744475e-02
  -6.2258309e-03
  -5.7861504e-04
  -5.3649322e-03
  -6.7893295e-04
  -1.8655633e-03
   4.5212051e-05
   2.1649410e-04
   2.3764792e-04
   1.6895892e-05
   2.4407202e-04
  -1.2139201e-05
  -5.8776687e-05
   1.8945122e-04
  -2.4061437e-05
   3.5567860e-05
   7.5030730e-05
   6.1959468e-05
  -1.5661923e-04
  -1.4993290e-04
  -2.9474511e-05
   1.3173834e-04
  -8.1412780e-05
  -1.4176312e-05
  -5.5557361e-05
   9.4975283e-05
   7.1129330e-05
   5.4872466e-05
  -2.0405125e-04
   3.9662788e-06
  -1.1377139e-05
  -4.7125344e-05
  -7.5116040e-06
  -5.2139147e-05
  -2.4956243e-04
  -3.9360443e-05
  -6.3192942e-05
  -1.7642346e-04
   7.5082929e-05
   1.5387992e-04
  -3.1031910e-06
   1.5272086e-04
  -2.8664480e-04
   8.6107529e-05
  -1.5321470e-04
  -1.8413083e-05
  -1.4769955e-04
   1.4381614e-04
  -9.6382227e-05
  -1.1859981e-04
  -2.9149866e-04
   4.9254683e-05
  -1.0247965e-04
  -7.3371581e-05
   7.0617207e-05
  -8.0568602e-05
   1.0814118e-04
  -1.5645801e-04
  -2.4580547e-05
  -1.2788549e-05
   1.0199024e-04
   1.0125542e-04
  -1.3279616e-04
  -9.7249402e-05
  -1.5898322e-04
   1.4820396e-04
   3.2610717e-04
   1.2760144e-04
  -1.3694151e-04
  -2.2608792e-05
  -2.1995980e-04
   8.5942284e-06
   1.0850390e-04
   5.9847836e-05
   5.0796032e-05
   4.8034269e-05
   5.3456918e-05
   2.2259336e-04
   4.4727446e-05
  -5.3334109e-05
   5.6216161e-05
  -1.1974830e-04
   1.4112924e-04
  -1.5112792e-04
  -5.7810454e-05
  -2.4120275e-05
  -7.6575775e-05
   1.8036308e-04
